{"learner":{"attributes":{},"feature_names":["LIMIT_BAL","BILL_AVG","PAY_AVG","UTIL_AVG","TOTAL_PAY","PAYMENT_RATIO"],"feature_types":["float","float","float","float","float","float"],"gradient_booster":{"model":{"gbtree_model_param":{"num_parallel_tree":"1","num_trees":"96"},"iteration_indptr":[0,1,2,3,4,5,6,7,8,9,10,11,12,13,14,15,16,17,18,19,20,21,22,23,24,25,26,27,28,29,30,31,32,33,34,35,36,37,38,39,40,41,42,43,44,45,46,47,48,49,50,51,52,53,54,55,56,57,58,59,60,61,62,63,64,65,66,67,68,69,70,71,72,73,74,75,76,77,78,79,80,81,82,83,84,85,86,87,88,89,90,91,92,93,94,95,96],"tree_info":[0,0,0,0,0,0,0,0,0,0,0,0,0,0,0,0,0,0,0,0,0,0,0,0,0,0,0,0,0,0,0,0,0,0,0,0,0,0,0,0,0,0,0,0,0,0,0,0,0,0,0,0,0,0,0,0,0,0,0,0,0,0,0,0,0,0,0,0,0,0,0,0,0,0,0,0,0,0,0,0,0,0,0,0,0,0,0,0,0,0,0,0,0,0,0,0],"trees":[{"base_weights":[2.945787E-3,-5.5423117E-1,1.0832651E0,7.221209E-2,-8.153896E-1,6.876577E-1,1.4386804E0,5.850777E-1,-7.896481E-2,-9.3410206E-1,-6.0243964E-1,5.565477E-1,9.75425E-1,1.3003696E0,1.6429837E0,3.0988568E-2,8.556634E-3,-1.8661203E-2,1.9057029E-3,-3.3954185E-2,-5.4250695E-2,-3.2617755E-2,-1.7913641E-2,4.2266052E-2,2.3229897E-2,6.52064E-2,4.50412E-2,2.1311007E-2,6.537186E-2,8.708773E-2,7.352277E-2],"categories":[],"categories_nodes":[],"categories_segments":[],"categories_sizes":[],"default_left":[0,0,0,0,0,0,0,0,0,0,0,0,0,0,0,0,0,0,0,0,0,0,0,0,0,0,0,0,0,0,0],"id":0,"left_children":[1,3,5,7,9,11,13,15,17,19,21,23,25,27,29,-1,-1,-1,-1,-1,-1,-1,-1,-1,-1,-1,-1,-1,-1,-1,-1],"loss_changes":[5.6269917E3,1.00905334E3,4.4625415E2,1.4081221E2,1.0947705E2,5.632361E1,4.5184082E1,5.8316193E0,4.835325E1,1.06753174E2,1.8789307E1,2.716333E1,1.0361084E1,5.6418457E0,8.894287E0,0E0,0E0,0E0,0E0,0E0,0E0,0E0,0E0,0E0,0E0,0E0,0E0,0E0,0E0,0E0,0E0],"parents":[2147483647,0,0,1,1,2,2,3,3,4,4,5,5,6,6,7,7,8,8,9,9,10,10,11,11,12,12,13,13,14,14],"right_children":[2,4,6,8,10,12,14,16,18,20,22,24,26,28,30,-1,-1,-1,-1,-1,-1,-1,-1,-1,-1,-1,-1,-1,-1,-1,-1],"split_conditions":[1.6666667E-1,6.824E3,1E0,3.2824074E-4,5.1514584E-1,6.666667E-1,2E0,1.116E3,-1E0,4.1985415E-2,1.1787492E-1,3.964184E-2,3.3579193E-2,8E2,8.11175E-1,3.0988568E-2,8.556634E-3,-1.8661203E-2,1.9057029E-3,-3.3954185E-2,-5.4250695E-2,-3.2617755E-2,-1.7913641E-2,4.2266052E-2,2.3229897E-2,6.52064E-2,4.50412E-2,2.1311007E-2,6.537186E-2,8.708773E-2,7.352277E-2],"split_indices":[2,4,2,3,3,2,2,4,2,3,5,5,5,4,3,0,0,0,0,0,0,0,0,0,0,0,0,0,0,0,0],"split_type":[0,0,0,0,0,0,0,0,0,0,0,0,0,0,0,0,0,0,0,0,0,0,0,0,0,0,0,0,0,0,0],"sum_hessian":[9.346268E3,6.1664136E3,3.179854E3,1.8145524E3,4.3518613E3,1.5062288E3,1.6736252E3,4.1245026E2,1.4021022E3,2.792018E3,1.5598431E3,1.0367898E3,4.6943896E2,1.00238696E3,6.712382E2,3.8009628E2,3.2353977E1,3.984566E2,1.00364557E3,1.0400276E3,1.7519905E3,1.2936985E3,2.6614465E2,2.4841998E2,7.883698E2,8.378571E1,3.8565326E2,8.531194E0,9.938558E2,4.210791E2,2.5015913E2],"tree_param":{"num_deleted":"0","num_feature":"6","num_nodes":"31","size_leaf_vector":"1"}},{"base_weights":[4.5654145E-3,-5.303231E-1,1.0439053E0,2.3030914E-1,-7.1890575E-1,7.0688766E-1,1.3599157E0,5.7683104E-1,5.7134263E-2,-3.4892455E-1,-8.357256E-1,5.8788234E-1,9.787109E-1,1.2438128E0,1.5413606E0,1.681398E-2,4.301429E-2,-2.2478914E-2,1.4401846E-2,4.9842205E-2,-1.8208971E-2,-1.869334E-2,-4.7017824E-2,3.997286E-2,2.3835693E-2,4.9879443E-2,-1.6965454E-2,6.0706973E-2,7.343182E-2,7.725426E-2,2.546375E-3],"categories":[],"categories_nodes":[],"categories_segments":[],"categories_sizes":[],"default_left":[0,0,0,0,0,0,0,0,0,0,0,0,0,0,0,0,0,0,0,0,0,0,0,0,0,0,0,0,0,0,0],"id":1,"left_children":[1,3,5,7,9,11,13,15,17,19,21,23,25,27,29,-1,-1,-1,-1,-1,-1,-1,-1,-1,-1,-1,-1,-1,-1,-1,-1],"loss_changes":[5.2319814E3,8.9144116E2,3.395996E2,7.409034E1,2.149187E2,4.954883E1,3.282544E1,2.776825E1,9.662239E1,2.4929047E1,1.8249292E2,2.5025574E1,1.2040619E1,4.9606934E0,3.470459E0,0E0,0E0,0E0,0E0,0E0,0E0,0E0,0E0,0E0,0E0,0E0,0E0,0E0,0E0,0E0,0E0],"parents":[2147483647,0,0,1,1,2,2,3,3,4,4,5,5,6,6,7,7,8,8,9,9,10,10,11,11,12,12,13,13,14,14],"right_children":[2,4,6,8,10,12,14,16,18,20,22,24,26,28,30,-1,-1,-1,-1,-1,-1,-1,-1,-1,-1,-1,-1,-1,-1,-1,-1],"split_conditions":[1.6666667E-1,4.096E3,1E0,5.7833332E1,7E4,6.666667E-1,2E0,2.2E5,-1.1666666E0,5.57E2,3.3623333E3,8.083E3,1.05E5,1.22570164E5,1.50551E5,1.681398E-2,4.301429E-2,-2.2478914E-2,1.4401846E-2,4.9842205E-2,-1.8208971E-2,-1.869334E-2,-4.7017824E-2,3.997286E-2,2.3835693E-2,4.9879443E-2,-1.6965454E-2,6.0706973E-2,7.343182E-2,7.725426E-2,2.546375E-3],"split_indices":[2,4,2,1,0,2,2,0,2,1,1,4,4,1,4,0,0,0,0,0,0,0,0,0,0,0,0,0,0,0,0],"split_type":[0,0,0,0,0,0,0,0,0,0,0,0,0,0,0,0,0,0,0,0,0,0,0,0,0,0,0,0,0,0,0],"sum_hessian":[9.409213E3,6.2124907E3,3.1967222E3,1.2342054E3,4.978285E3,1.5485104E3,1.6482119E3,4.1048886E2,8.237166E2,1.1956188E3,3.7826665E3,1.0791963E3,4.69314E2,1.0098709E3,6.38341E2,2.2323164E2,1.8725723E2,2.5755933E2,5.661573E2,1.2679736E1,1.182939E3,6.9950433E2,3.083162E3,3.6959503E2,7.096013E2,4.6292664E2,6.3873568E0,8.977782E2,1.12092674E2,6.3671326E2,1.6277261E0],"tree_param":{"num_deleted":"0","num_feature":"6","num_nodes":"31","size_leaf_vector":"1"}},{"base_weights":[8.552407E-3,3.2092288E-1,-3.900563E-1,7.0448184E-1,1.7158903E-1,-8.010337E-1,7.920176E-2,1.1048608E0,6.525639E-1,3.2268652E-1,-9.203451E-3,-6.5350723E-1,-1.0818342E0,-1.8553723E-1,3.6820522E-1,2.2504753E-2,6.570312E-2,1.2490801E-2,3.4787554E-2,1.2058214E-2,2.3970297E-2,2.6783055E-2,-9.292221E-3,-2.3591703E-2,-4.1273683E-2,-3.681495E-2,-5.946373E-2,-2.9392086E-3,-2.9628882E-2,2.2441907E-2,1.0576056E-2],"categories":[],"categories_nodes":[],"categories_segments":[],"categories_sizes":[],"default_left":[0,0,0,0,0,0,0,0,0,0,0,0,0,0,0,0,0,0,0,0,0,0,0,0,0,0,0,0,0,0,0],"id":2,"left_children":[1,3,5,7,9,11,13,15,17,19,21,23,25,27,29,-1,-1,-1,-1,-1,-1,-1,-1,-1,-1,-1,-1,-1,-1,-1,-1],"loss_changes":[1.164297E3,3.0015887E2,7.923656E2,2.9810486E1,1.0311696E2,9.002478E1,1.4689574E2,2.230513E1,2.2483582E1,2.615509E1,1.6558842E2,4.454834E1,2.7073364E1,5.1674107E1,1.1500618E1,0E0,0E0,0E0,0E0,0E0,0E0,0E0,0E0,0E0,0E0,0E0,0E0,0E0,0E0,0E0,0E0],"parents":[2147483647,0,0,1,1,2,2,3,3,4,4,5,5,6,6,7,7,8,8,9,9,10,10,11,11,12,12,13,13,14,14],"right_children":[2,4,6,8,10,12,14,16,18,20,22,24,26,28,30,-1,-1,-1,-1,-1,-1,-1,-1,-1,-1,-1,-1,-1,-1,-1,-1],"split_conditions":[1.48E4,5E4,5.019E-1,1.836E3,1.3E5,2.9E5,8.11175E-1,1.1362821E-2,3.6513333E3,5.999567E-1,8E2,2.9502E4,2.1941667E-2,5.0246E4,4E4,2.2504753E-2,6.570312E-2,1.2490801E-2,3.4787554E-2,1.2058214E-2,2.3970297E-2,2.6783055E-2,-9.292221E-3,-2.3591703E-2,-4.1273683E-2,-3.681495E-2,-5.946373E-2,-2.9392086E-3,-2.9628882E-2,2.2441907E-2,1.0576056E-2],"split_indices":[4,0,3,4,0,0,3,3,1,3,4,4,3,4,4,0,0,0,0,0,0,0,0,0,0,0,0,0,0,0,0],"split_type":[0,0,0,0,0,0,0,0,0,0,0,0,0,0,0,0,0,0,0,0,0,0,0,0,0,0,0,0,0,0,0],"sum_hessian":[9.348757E3,5.2414663E3,4.10729E3,1.4677872E3,3.7736792E3,2.1892407E3,1.9180494E3,1.6615532E2,1.3016318E3,2.0552322E3,1.7184471E3,1.437393E3,7.518477E2,1.00123517E3,9.168143E2,4.0996048E1,1.2515928E2,1.2671521E2,1.1749166E3,1.3536367E3,7.015953E2,4.2021732E2,1.2982297E3,7.0079016E2,7.366028E2,1.8019185E2,5.716559E2,7.6435736E2,2.3687776E2,6.0407837E2,3.1273593E2],"tree_param":{"num_deleted":"0","num_feature":"6","num_nodes":"31","size_leaf_vector":"1"}},{"base_weights":[4.9970434E-3,-4.9077487E-1,9.665399E-1,2.1656887E-1,-6.845433E-1,6.316566E-1,1.2829299E0,5.4247475E-1,7.02218E-2,-4.4063115E-1,-8.3065104E-1,5.1129633E-1,8.8934535E-1,1.1751654E0,1.4532583E0,1.6410923E-2,4.0151063E-2,-1.6309895E-2,1.1996054E-2,-1.30319195E-2,-2.7327318E-2,-1.9823119E-2,-4.436919E-2,4.8113614E-2,2.3601128E-2,4.7213383E-2,2.5564928E-2,2.2835874E-3,5.893907E-2,7.298945E-2,-1.6239619E-2],"categories":[],"categories_nodes":[],"categories_segments":[],"categories_sizes":[],"default_left":[0,0,0,0,0,0,0,0,0,0,0,0,0,0,0,0,0,0,0,0,0,0,0,0,0,0,0,0,0,0,0],"id":3,"left_children":[1,3,5,7,9,11,13,15,17,19,21,23,25,27,29,-1,-1,-1,-1,-1,-1,-1,-1,-1,-1,-1,-1,-1,-1,-1,-1],"loss_changes":[4.4567764E3,8.45621E2,3.3617798E2,6.3263573E1,1.7220435E2,4.7528503E1,2.8292969E1,2.2687881E1,6.1771263E1,3.4480865E1,7.42168E1,1.826474E1,9.715973E0,4.0562744E0,7.779663E0,0E0,0E0,0E0,0E0,0E0,0E0,0E0,0E0,0E0,0E0,0E0,0E0,0E0,0E0,0E0,0E0],"parents":[2147483647,0,0,1,1,2,2,3,3,4,4,5,5,6,6,7,7,8,8,9,9,10,10,11,11,12,12,13,13,14,14],"right_children":[2,4,6,8,10,12,14,16,18,20,22,24,26,28,30,-1,-1,-1,-1,-1,-1,-1,-1,-1,-1,-1,-1,-1,-1,-1,-1],"split_conditions":[1.6666667E-1,4.524E3,1E0,5.7833332E1,1.4452E4,6.666667E-1,2E0,2.2E5,-1.1666666E0,5.7605E3,7E4,3.763E3,2E5,3.25E2,1.05E5,1.6410923E-2,4.0151063E-2,-1.6309895E-2,1.1996054E-2,-1.30319195E-2,-2.7327318E-2,-1.9823119E-2,-4.436919E-2,4.8113614E-2,2.3601128E-2,4.7213383E-2,2.5564928E-2,2.2835874E-3,5.893907E-2,7.298945E-2,-1.6239619E-2],"split_indices":[2,4,2,1,4,2,2,0,2,1,0,4,0,1,4,0,0,0,0,0,0,0,0,0,0,0,0,0,0,0,0],"split_type":[0,0,0,0,0,0,0,0,0,0,0,0,0,0,0,0,0,0,0,0,0,0,0,0,0,0,0,0,0,0,0],"sum_hessian":[9.347114E3,6.1675913E3,3.179523E3,1.3262076E3,4.841384E3,1.5460747E3,1.6334482E3,4.1014142E2,9.160662E2,1.8151646E3,3.026219E3,1.0558817E3,4.9019305E2,1.005305E3,6.281433E2,2.2630383E2,1.8383759E2,2.743227E2,6.417435E2,6.737135E2,1.141451E3,3.5064462E2,2.6755745E3,8.270365E1,9.7317804E2,4.2670413E2,6.348892E1,3.251614E0,1.0020534E3,6.2602295E2,2.120336E0],"tree_param":{"num_deleted":"0","num_feature":"6","num_nodes":"31","size_leaf_vector":"1"}},{"base_weights":[1.0655835E-2,-4.6019676E-1,9.243113E-1,2.0741351E-1,-6.4073503E-1,5.090807E-1,1.1390597E0,-1.1341416E-1,3.2853174E-1,-3.0202478E-1,-7.7607006E-1,3.1520653E-1,6.0093194E-1,1.0239159E0,1.4077809E0,1.3027643E-2,-1.8820172E-2,2.1830836E-2,-3.2734198E-3,-5.1365597E-3,-1.8759778E-2,-2.558831E-2,-4.4143777E-2,4.397788E-2,6.287494E-3,2.8827002E-2,4.7655564E-2,4.3801688E-2,5.4757863E-2,7.46096E-2,6.2939726E-2],"categories":[],"categories_nodes":[],"categories_segments":[],"categories_sizes":[],"default_left":[0,0,0,0,0,0,0,0,0,0,0,0,0,0,0,0,0,0,0,0,0,0,0,0,0,0,0,0,0,0,0],"id":4,"left_children":[1,3,5,7,9,11,13,15,17,19,21,23,25,27,29,-1,-1,-1,-1,-1,-1,-1,-1,-1,-1,-1,-1,-1,-1,-1,-1],"loss_changes":[4.0130889E3,7.421118E2,2.8231152E2,5.09854E1,2.2189746E2,1.9100708E1,6.3233887E1,3.5510544E1,4.0572777E1,2.01594E1,9.727173E1,3.7346996E1,5.7550964E0,1.4495117E1,5.9732666E0,0E0,0E0,0E0,0E0,0E0,0E0,0E0,0E0,0E0,0E0,0E0,0E0,0E0,0E0,0E0,0E0],"parents":[2147483647,0,0,1,1,2,2,3,3,4,4,5,5,6,6,7,7,8,8,9,9,10,10,11,11,12,12,13,13,14,14],"right_children":[2,4,6,8,10,12,14,16,18,20,22,24,26,28,30,-1,-1,-1,-1,-1,-1,-1,-1,-1,-1,-1,-1,-1,-1,-1,-1],"split_conditions":[1.6666667E-1,1.2868334E3,6.666667E-1,-1.5E0,8E4,4.1366E-1,2E0,5.7833332E1,7.691667E2,1.00175E4,8.4695E3,3.9678333E3,2.8E5,1E0,8.11175E-1,1.3027643E-2,-1.8820172E-2,2.1830836E-2,-3.2734198E-3,-5.1365597E-3,-1.8759778E-2,-2.558831E-2,-4.4143777E-2,4.397788E-2,6.287494E-3,2.8827002E-2,4.7655564E-2,4.3801688E-2,5.4757863E-2,7.46096E-2,6.2939726E-2],"split_indices":[2,1,2,2,0,3,2,1,1,1,1,1,0,2,3,0,0,0,0,0,0,0,0,0,0,0,0,0,0,0,0],"split_type":[0,0,0,0,0,0,0,0,0,0,0,0,0,0,0,0,0,0,0,0,0,0,0,0,0,0,0,0,0,0,0],"sum_hessian":[9.326502E3,6.155011E3,3.1714907E3,1.3101338E3,4.8448774E3,1.0822528E3,2.089238E3,3.5906833E2,9.510654E2,1.3840851E3,3.4607925E3,3.4933282E2,7.329199E2,1.4659193E3,6.233186E2,1.4825752E2,2.1081082E2,7.4624255E2,2.0482286E2,3.723441E2,1.01174097E3,9.976852E2,2.4631072E3,8.688334E1,2.624495E2,6.879123E2,4.5007607E1,4.8092267E2,9.849967E2,3.9213266E2,2.3118594E2],"tree_param":{"num_deleted":"0","num_feature":"6","num_nodes":"31","size_leaf_vector":"1"}},{"base_weights":[-7.390762E-3,2.4076758E-1,-3.881745E-1,4.047343E-1,-8.686255E-2,-7.440059E-1,3.1179028E-2,5.846719E-1,2.8672343E-1,5.4146373E-1,-2.4946046E-1,-6.4110243E-1,-1.0280964E0,-2.0542529E-1,3.3790872E-1,3.0876968E-2,-6.3286046E-3,2.5365755E-2,1.189228E-2,1.8907027E-2,4.588109E-2,-3.598186E-3,-1.8115867E-2,-2.8320631E-2,-4.3202624E-2,3.7055638E-2,-5.256166E-2,2.1958819E-2,-1.4145783E-2,4.2482946E-2,1.0212222E-2],"categories":[],"categories_nodes":[],"categories_segments":[],"categories_sizes":[],"default_left":[0,0,0,0,0,0,0,0,0,0,0,0,0,0,0,0,0,0,0,0,0,0,0,0,0,0,0,0,0,0,0],"id":5,"left_children":[1,3,5,7,9,11,13,15,17,19,21,23,25,27,29,-1,-1,-1,-1,-1,-1,-1,-1,-1,-1,-1,-1,-1,-1,-1,-1],"loss_changes":[8.791721E2,3.0263968E2,5.478062E2,7.955371E1,1.9216678E2,5.739795E1,1.22432045E2,3.4817017E1,2.4346802E1,2.341185E1,2.9899368E1,2.3831482E1,2.232727E1,4.769961E1,5.007496E1,0E0,0E0,0E0,0E0,0E0,0E0,0E0,0E0,0E0,0E0,0E0,0E0,0E0,0E0,0E0,0E0],"parents":[2147483647,0,0,1,1,2,2,3,3,4,4,5,5,6,6,7,7,8,8,9,9,10,10,11,11,12,12,13,13,14,14],"right_children":[2,4,6,8,10,12,14,16,18,20,22,24,26,28,30,-1,-1,-1,-1,-1,-1,-1,-1,-1,-1,-1,-1,-1,-1,-1,-1],"split_conditions":[1.72E4,1.3E5,5.0870836E-1,5E4,1.2604948E-2,6.9555E4,8.3233887E-1,7.3883164E-1,3.3579193E-2,3.2E5,5.49E3,3.1E5,-8.6433336E-4,3.3579193E-2,3.528208E-2,3.0876968E-2,-6.3286046E-3,2.5365755E-2,1.189228E-2,1.8907027E-2,4.588109E-2,-3.598186E-3,-1.8115867E-2,-2.8320631E-2,-4.3202624E-2,3.7055638E-2,-5.256166E-2,2.1958819E-2,-1.4145783E-2,4.2482946E-2,1.0212222E-2],"split_indices":[4,0,3,0,5,4,3,5,5,0,4,0,3,5,5,0,0,0,0,0,0,0,0,0,0,0,0,0,0,0,0],"split_type":[0,0,0,0,0,0,0,0,0,0,0,0,0,0,0,0,0,0,0,0,0,0,0,0,0,0,0,0,0,0,0],"sum_hessian":[9.301946E3,5.631949E3,3.669997E3,3.7533174E3,1.8786316E3,1.9849476E3,1.6850494E3,1.4850409E3,2.2682766E3,3.857294E2,1.4929022E3,1.4595316E3,5.25416E2,9.5145154E2,7.3359784E2,1.4195725E3,6.54684E1,4.0973105E2,1.8585455E3,2.7035144E2,1.1537797E2,5.8090924E2,9.11993E2,1.0959285E3,3.6360315E2,6.3818216E0,5.190342E2,1.016029E2,8.4984863E2,1.5081755E2,5.827803E2],"tree_param":{"num_deleted":"0","num_feature":"6","num_nodes":"31","size_leaf_vector":"1"}},{"base_weights":[1.4741166E-3,2.318446E-1,-3.6626777E-1,3.9809987E-1,-4.2851362E-2,-6.9687885E-1,1.51365725E-2,5.7765347E-1,2.673273E-1,4.7174346E-1,-1.7945714E-1,-5.91383E-1,-9.772797E-1,-2.212766E-1,3.2655084E-1,4.736324E-2,2.684523E-2,1.2084675E-2,3.1174485E-2,1.0704935E-2,3.417216E-2,-3.342223E-3,-2.3085121E-2,-1.3501755E-2,-3.170455E-2,2.9932144E-3,-5.1794495E-2,-1.0315938E-3,-1.6437864E-2,1.3071929E-2,3.7387963E-2],"categories":[],"categories_nodes":[],"categories_segments":[],"categories_sizes":[],"default_left":[0,0,0,0,0,0,0,0,0,0,0,0,0,0,0,0,0,0,0,0,0,0,0,0,0,0,0,0,0,0,0],"id":6,"left_children":[1,3,5,7,9,11,13,15,17,19,21,23,25,27,29,-1,-1,-1,-1,-1,-1,-1,-1,-1,-1,-1,-1,-1,-1,-1,-1],"loss_changes":[7.8150464E2,2.590466E2,4.4804245E2,8.281268E1,1.5047649E2,5.5723816E1,1.2160733E2,2.1904572E1,1.8531479E1,2.4347244E1,5.37268E1,1.8843628E1,3.1597748E1,2.0242985E1,1.9353539E1,0E0,0E0,0E0,0E0,0E0,0E0,0E0,0E0,0E0,0E0,0E0,0E0,0E0,0E0,0E0,0E0],"parents":[2147483647,0,0,1,1,2,2,3,3,4,4,5,5,6,6,7,7,8,8,9,9,10,10,11,11,12,12,13,13,14,14],"right_children":[2,4,6,8,10,12,14,16,18,20,22,24,26,28,30,-1,-1,-1,-1,-1,-1,-1,-1,-1,-1,-1,-1,-1,-1,-1,-1],"split_conditions":[1.7835E4,1.1E5,5.019E-1,5E4,8E2,6.7561E4,8.3233887E-1,1.5E3,6.5317E4,2.2E5,2.5E5,7E4,6.5525E3,2.7707E4,3E5,4.736324E-2,2.684523E-2,1.2084675E-2,3.1174485E-2,1.0704935E-2,3.417216E-2,-3.342223E-3,-2.3085121E-2,-1.3501755E-2,-3.170455E-2,2.9932144E-3,-5.1794495E-2,-1.0315938E-3,-1.6437864E-2,1.3071929E-2,3.7387963E-2],"split_indices":[4,0,3,0,4,4,3,4,1,0,0,0,1,4,0,0,0,0,0,0,0,0,0,0,0,0,0,0,0,0,0],"split_type":[0,0,0,0,0,0,0,0,0,0,0,0,0,0,0,0,0,0,0,0,0,0,0,0,0,0,0,0,0,0,0],"sum_hessian":[9.222896E3,5.6708096E3,3.5520872E3,3.5324202E3,2.1383892E3,1.9022986E3,1.6497886E3,1.4871345E3,2.0452858E3,4.480665E2,1.6903225E3,1.3845101E3,5.1778845E2,9.379921E2,7.1179645E2,1.4546394E2,1.3416705E3,1.9095311E3,1.3575462E2,2.030094E2,2.450571E2,1.2091301E3,4.8119247E2,1.6327817E2,1.221232E3,2.7694557E1,4.900939E2,3.276073E2,6.103848E2,6.178995E2,9.389697E1],"tree_param":{"num_deleted":"0","num_feature":"6","num_nodes":"31","size_leaf_vector":"1"}},{"base_weights":[1.6759364E-3,2.4879622E-1,-3.1923056E-1,3.3901092E-1,-3.0822258E-2,3.7499982E-1,-4.8961675E-1,5.847297E-1,2.2458038E-1,4.8938203E-1,-1.863769E-1,3.0005425E-1,7.4139094E-1,-1.382979E-1,-5.9890753E-1,5.541587E-2,2.7248243E-2,2.0370431E-2,7.993992E-3,3.4274608E-2,5.730215E-3,-1.1380872E-2,2.9755611E-2,2.3795616E-2,3.1016348E-3,3.8816024E-2,-6.0616918E-2,-1.7551068E-2,-4.0828264E-3,-3.3885982E-2,7.805197E-4],"categories":[],"categories_nodes":[],"categories_segments":[],"categories_sizes":[],"default_left":[0,0,0,0,0,0,0,0,0,0,0,0,0,0,0,0,0,0,0,0,0,0,0,0,0,0,0,0,0,0,0],"id":7,"left_children":[1,3,5,7,9,11,13,15,17,19,21,23,25,27,29,-1,-1,-1,-1,-1,-1,-1,-1,-1,-1,-1,-1,-1,-1,-1,-1],"loss_changes":[7.336007E2,1.3184384E2,4.7623154E2,1.10973114E2,1.03325195E2,2.1570908E1,1.2400696E2,2.5522675E1,3.1844345E1,2.1525642E1,3.1810349E1,2.7620335E1,1.0092186E1,9.226554E0,1.1938025E2,0E0,0E0,0E0,0E0,0E0,0E0,0E0,0E0,0E0,0E0,0E0,0E0,0E0,0E0,0E0,0E0],"parents":[2147483647,0,0,1,1,2,2,3,3,4,4,5,5,6,6,7,7,8,8,9,9,10,10,11,11,12,12,13,13,14,14],"right_children":[2,4,6,8,10,12,14,16,18,20,22,24,26,28,30,-1,-1,-1,-1,-1,-1,-1,-1,-1,-1,-1,-1,-1,-1,-1,-1],"split_conditions":[1.5E5,1.7190857E-1,3.5999782E-2,5E4,8.233333E2,8.3233887E-1,2.4E3,2.5941667E3,3.621635E-2,9.996417E-1,8.366857E-1,2.3624886E-2,1.1685817E0,1.485E-3,7.7959025E-1,5.541587E-2,2.7248243E-2,2.0370431E-2,7.993992E-3,3.4274608E-2,5.730215E-3,-1.1380872E-2,2.9755611E-2,2.3795616E-2,3.1016348E-3,3.8816024E-2,-6.0616918E-2,-1.7551068E-2,-4.0828264E-3,-3.3885982E-2,7.805197E-4],"split_indices":[0,5,5,0,1,3,1,1,5,5,3,5,3,3,3,0,0,0,0,0,0,0,0,0,0,0,0,0,0,0,0],"split_type":[0,0,0,0,0,0,0,0,0,0,0,0,0,0,0,0,0,0,0,0,0,0,0,0,0,0,0,0,0,0,0],"sum_hessian":[9.248661E3,5.2251543E3,4.023507E3,3.9504036E3,1.2747506E3,7.926582E2,3.2308489E3,1.2538593E3,2.6965444E3,2.9294403E2,9.818066E2,6.595631E2,1.3309512E2,7.671347E2,2.463714E3,8.660819E1,1.167251E3,7.034541E2,1.9930903E3,1.9176828E2,1.0117575E2,9.332653E2,4.8541286E1,3.7873898E2,2.808241E2,1.3134946E2,1.745667E0,1.602183E2,6.069164E2,2.183568E3,2.8014597E2],"tree_param":{"num_deleted":"0","num_feature":"6","num_nodes":"31","size_leaf_vector":"1"}},{"base_weights":[5.465386E-4,-4.4098732E-1,8.555081E-1,1.9498056E-1,-6.1321306E-1,5.48916E-1,1.1418067E0,-6.57191E-2,2.9787418E-1,-3.165598E-1,-7.186172E-1,4.6141505E-1,7.392754E-1,1.037487E0,1.3080729E0,-1.2227568E-2,2.8231753E-2,2.7592136E-2,8.752693E-3,2.3305316E-2,-1.7202884E-2,-2.3426905E-2,-4.086767E-2,3.8350146E-2,2.057603E-2,3.9867148E-2,2.358422E-2,8.480618E-3,5.222984E-2,4.551433E-3,6.565445E-2],"categories":[],"categories_nodes":[],"categories_segments":[],"categories_sizes":[],"default_left":[0,0,0,0,0,0,0,0,0,0,0,0,0,0,0,0,0,0,0,0,0,0,0,0,0,0,0,0,0,0,0],"id":8,"left_children":[1,3,5,7,9,11,13,15,17,19,21,23,25,27,29,-1,-1,-1,-1,-1,-1,-1,-1,-1,-1,-1,-1,-1,-1,-1,-1],"loss_changes":[3.484723E3,6.668751E2,2.753235E2,3.4837185E1,1.4956201E2,2.4977112E1,2.6824219E1,4.1637367E1,2.8938866E1,2.722725E1,8.687268E1,1.5602417E1,7.0357666E0,6.0129395E0,3.6810303E0,0E0,0E0,0E0,0E0,0E0,0E0,0E0,0E0,0E0,0E0,0E0,0E0,0E0,0E0,0E0,0E0],"parents":[2147483647,0,0,1,1,2,2,3,3,4,4,5,5,6,6,7,7,8,8,9,9,10,10,11,11,12,12,13,13,14,14],"right_children":[2,4,6,8,10,12,14,16,18,20,22,24,26,28,30,-1,-1,-1,-1,-1,-1,-1,-1,-1,-1,-1,-1,-1,-1,-1,-1],"split_conditions":[1.6666667E-1,1.2868334E3,1E0,-1.5E0,7E4,6.666667E-1,2E0,3.4E5,8E2,1.956E3,8.4695E3,5.1E3,2.5683E4,6.15E2,2E2,-1.2227568E-2,2.8231753E-2,2.7592136E-2,8.752693E-3,2.3305316E-2,-1.7202884E-2,-2.3426905E-2,-4.086767E-2,3.8350146E-2,2.057603E-2,3.9867148E-2,2.358422E-2,8.480618E-3,5.222984E-2,4.551433E-3,6.565445E-2],"split_indices":[2,1,2,2,0,2,2,0,4,4,1,4,4,4,1,0,0,0,0,0,0,0,0,0,0,0,0,0,0,0,0],"split_type":[0,0,0,0,0,0,0,0,0,0,0,0,0,0,0,0,0,0,0,0,0,0,0,0,0,0,0,0,0,0,0],"sum_hessian":[9.229189E3,6.0864204E3,3.142769E3,1.2969858E3,4.7894346E3,1.5190078E3,1.6237612E3,3.6713754E2,9.2984827E2,1.2566566E3,3.532778E3,1.0430032E3,4.7600458E2,1.0021967E3,6.2156445E2,2.8647598E2,8.066156E1,3.0196027E2,6.27888E2,4.211099E1,1.2145457E3,1.00162006E3,2.531158E3,1.4437561E2,8.986276E2,3.8950244E2,8.650213E1,8.345436E0,9.9385126E2,2.6298866E0,6.189346E2],"tree_param":{"num_deleted":"0","num_feature":"6","num_nodes":"31","size_leaf_vector":"1"}},{"base_weights":[5.4552387E-3,2.5770903E-1,-2.4930005E-1,5.322543E-1,1.408355E-1,-5.669453E-1,6.8133764E-2,8.983618E-1,4.7566244E-1,2.674391E-1,-9.703246E-3,-4.8132804E-1,-8.7191653E-1,5.0315195E-1,-3.5780706E-2,5.170811E-2,2.6238967E-2,2.513778E-2,-1.4481739E-3,9.825191E-3,2.2235261E-2,6.2991506E-3,-8.542511E-3,-1.9762268E-2,-3.574815E-2,-4.7555014E-2,-2.8117074E-2,1.3254861E-2,3.8912445E-2,-1.0048156E-2,6.9882073E-3],"categories":[],"categories_nodes":[],"categories_segments":[],"categories_sizes":[],"default_left":[0,0,0,0,0,0,0,0,0,0,0,0,0,0,0,0,0,0,0,0,0,0,0,0,0,0,0,0,0,0,0],"id":9,"left_children":[1,3,5,7,9,11,13,15,17,19,21,23,25,27,29,-1,-1,-1,-1,-1,-1,-1,-1,-1,-1,-1,-1,-1,-1,-1,-1],"loss_changes":[5.90719E2,1.4812793E2,4.6118478E2,2.8138702E1,6.1772278E1,5.9271362E1,1.0346324E2,8.764969E0,1.6370148E1,2.2049835E1,3.241557E1,3.5661255E1,1.17187805E1,2.8693588E1,5.3616554E1,0E0,0E0,0E0,0E0,0E0,0E0,0E0,0E0,0E0,0E0,0E0,0E0,0E0,0E0,0E0,0E0],"parents":[2147483647,0,0,1,1,2,2,3,3,4,4,5,5,6,6,7,7,8,8,9,9,10,10,11,11,12,12,13,13,14,14],"right_children":[2,4,6,8,10,12,14,16,18,20,22,24,26,28,30,-1,-1,-1,-1,-1,-1,-1,-1,-1,-1,-1,-1,-1,-1,-1,-1],"split_conditions":[1.2253E4,5E4,4.5973334E-1,3.4457315E-2,6.908234E-2,6.7561E4,3.5517886E-2,3.22E3,7.3883164E-1,6.0618013E-1,5.49E3,2.9E5,1.0644407E0,8.3233887E-1,7.847231E-1,5.170811E-2,2.6238967E-2,2.513778E-2,-1.4481739E-3,9.825191E-3,2.2235261E-2,6.2991506E-3,-8.542511E-3,-1.9762268E-2,-3.574815E-2,-4.7555014E-2,-2.8117074E-2,1.3254861E-2,3.8912445E-2,-1.0048156E-2,6.9882073E-3],"split_indices":[4,0,3,5,5,4,5,4,5,3,4,0,5,3,3,0,0,0,0,0,0,0,0,0,0,0,0,0,0,0,0],"split_type":[0,0,0,0,0,0,0,0,0,0,0,0,0,0,0,0,0,0,0,0,0,0,0,0,0,0,0,0,0,0,0],"sum_hessian":[9.190212E3,4.6177715E3,4.57244E3,1.3777567E3,3.240015E3,2.285066E3,2.2873743E3,1.8246542E2,1.1952913E3,1.7594961E3,1.4805188E3,1.7861909E3,4.9887503E2,4.4029996E2,1.8470742E3,1.3252373E2,4.9941704E1,1.1343901E3,6.0901234E1,1.258143E3,5.013532E2,8.0387317E2,6.766456E2,1.3072332E3,4.789578E2,3.9561224E2,1.0326279E2,2.3709438E2,2.032056E2,9.515498E2,8.955244E2],"tree_param":{"num_deleted":"0","num_feature":"6","num_nodes":"31","size_leaf_vector":"1"}},{"base_weights":[-9.086212E-3,2.0026027E-1,-2.7619225E-1,4.2563304E-1,9.839859E-2,3.209692E-1,-4.210333E-1,5.3550416E-1,1.24742486E-1,1.7523E-1,-1.3643333E-1,2.4320704E-1,7.1013594E-1,-8.906302E-2,-5.076324E-1,4.7482263E-2,2.4536647E-2,2.9124072E-2,1.0868555E-3,6.134383E-3,1.5237711E-2,9.907673E-3,-2.0114288E-2,2.2190027E-2,1.0136542E-3,5.0949913E-2,2.7375767E-2,-1.7043898E-2,-1.291852E-3,-2.9993782E-2,-1.3273174E-2],"categories":[],"categories_nodes":[],"categories_segments":[],"categories_sizes":[],"default_left":[0,0,0,0,0,0,0,0,0,0,0,0,0,0,0,0,0,0,0,0,0,0,0,0,0,0,0,0,0,0,0],"id":10,"left_children":[1,3,5,7,9,11,13,15,17,19,21,23,25,27,29,-1,-1,-1,-1,-1,-1,-1,-1,-1,-1,-1,-1,-1,-1,-1,-1],"loss_changes":[5.0912338E2,1.171378E2,3.4615555E2,5.245041E1,6.3474983E1,2.3476906E1,9.252582E1,2.1104523E1,2.0083416E1,1.7998878E1,7.724591E1,2.9186172E1,5.9529114E0,1.0617333E1,5.688501E1,0E0,0E0,0E0,0E0,0E0,0E0,0E0,0E0,0E0,0E0,0E0,0E0,0E0,0E0,0E0,0E0],"parents":[2147483647,0,0,1,1,2,2,3,3,4,4,5,5,6,6,7,7,8,8,9,9,10,10,11,11,12,12,13,13,14,14],"right_children":[2,4,6,8,10,12,14,16,18,20,22,24,26,28,30,-1,-1,-1,-1,-1,-1,-1,-1,-1,-1,-1,-1,-1,-1,-1,-1],"split_conditions":[1.5E5,5E4,3.5999782E-2,1.3233718E-1,1.7876212E-1,8.3233887E-1,1.8866666E3,5.3526665E3,1.6E4,7.847231E-1,3.1532936E-2,1.2613334E-2,3.03659E-2,3.25E2,4.1366E-1,4.7482263E-2,2.4536647E-2,2.9124072E-2,1.0868555E-3,6.134383E-3,1.5237711E-2,9.907673E-3,-2.0114288E-2,2.2190027E-2,1.0136542E-3,5.0949913E-2,2.7375767E-2,-1.7043898E-2,-1.291852E-3,-2.9993782E-2,-1.3273174E-2],"split_indices":[0,0,5,5,5,3,1,1,0,3,3,3,5,1,3,0,0,0,0,0,0,0,0,0,0,0,0,0,0,0,0],"split_type":[0,0,0,0,0,0,0,0,0,0,0,0,0,0,0,0,0,0,0,0,0,0,0,0,0,0,0,0,0,0,0],"sum_hessian":[9.102881E3,5.103344E3,3.9995364E3,1.5875817E3,3.5157625E3,7.8048395E2,3.2190525E3,1.1623619E3,4.2521973E2,2.649246E3,8.6651636E2,6.5185675E2,1.2862715E2,6.664189E2,2.5526335E3,1.1142755E2,1.0509344E3,7.725524E1,3.4796448E2,1.8860891E3,7.63157E2,3.8377435E2,4.82742E2,3.4259915E2,3.0925763E2,4.2548843E1,8.607831E1,1.3286319E2,5.335557E2,1.8474529E3,7.051807E2],"tree_param":{"num_deleted":"0","num_feature":"6","num_nodes":"31","size_leaf_vector":"1"}},{"base_weights":[7.124125E-3,-3.8841662E-1,7.939873E-1,1.2817335E-1,-5.282168E-1,5.0371546E-1,1.0761416E0,3.8325095E-1,1.136091E-2,-3.2899183E-1,-5.9724927E-1,4.1715997E-1,6.994667E-1,9.766259E-1,1.2316613E0,2.2647822E-2,-1.0605226E-2,-1.655263E-2,8.230346E-3,-2.1789802E-2,3.7449074E-3,-3.6027536E-2,-2.093572E-2,3.626631E-2,1.816373E-2,4.5514777E-2,3.1712558E-2,4.900172E-2,-1.8731432E-2,6.648168E-2,5.3301867E-2],"categories":[],"categories_nodes":[],"categories_segments":[],"categories_sizes":[],"default_left":[0,0,0,0,0,0,0,0,0,0,0,0,0,0,0,0,0,0,0,0,0,0,0,0,0,0,0,0,0,0,0],"id":11,"left_children":[1,3,5,7,9,11,13,15,17,19,21,23,25,27,29,-1,-1,-1,-1,-1,-1,-1,-1,-1,-1,-1,-1,-1,-1,-1,-1],"loss_changes":[2.8371453E3,4.381734E2,2.4920923E2,3.8517113E1,6.546716E1,2.5207336E1,2.2715454E1,1.6947105E1,4.6639236E1,5.3129196E1,7.772803E1,1.7106339E1,5.7465973E0,4.7298584E0,8.305664E0,0E0,0E0,0E0,0E0,0E0,0E0,0E0,0E0,0E0,0E0,0E0,0E0,0E0,0E0,0E0,0E0],"parents":[2147483647,0,0,1,1,2,2,3,3,4,4,5,5,6,6,7,7,8,8,9,9,10,10,11,11,12,12,13,13,14,14],"right_children":[2,4,6,8,10,12,14,16,18,20,22,24,26,28,30,-1,-1,-1,-1,-1,-1,-1,-1,-1,-1,-1,-1,-1,-1,-1,-1],"split_conditions":[1.6666667E-1,4.416E3,1E0,3.2824074E-4,4.1985415E-2,6.666667E-1,2E0,3.3E2,-1.1666666E0,-5E-1,5.9440833E-1,5.2E3,3.6858E-2,8.163541E-1,8.11175E-1,2.2647822E-2,-1.0605226E-2,-1.655263E-2,8.230346E-3,-2.1789802E-2,3.7449074E-3,-3.6027536E-2,-2.093572E-2,3.626631E-2,1.816373E-2,4.5514777E-2,3.1712558E-2,4.900172E-2,-1.8731432E-2,6.648168E-2,5.3301867E-2],"split_indices":[2,4,2,3,3,2,2,4,2,2,3,4,5,5,3,0,0,0,0,0,0,0,0,0,0,0,0,0,0,0,0],"split_type":[0,0,0,0,0,0,0,0,0,0,0,0,0,0,0,0,0,0,0,0,0,0,0,0,0,0,0,0,0,0,0],"sum_hessian":[9.113732E3,6.0653203E3,3.0484119E3,1.2918298E3,4.7734907E3,1.5039642E3,1.5444476E3,4.0505347E2,8.8677637E2,1.2298777E3,3.5436128E3,1.0450188E3,4.589455E2,9.462378E2,5.9820984E2,3.6281366E2,4.2239803E1,2.7381122E2,6.1296515E2,9.7260425E2,2.572734E2,2.0942358E3,1.449377E3,1.5367924E2,8.9133954E2,1.0536462E2,3.5358087E2,9.44131E2,2.1067846E0,3.714541E2,2.2675572E2],"tree_param":{"num_deleted":"0","num_feature":"6","num_nodes":"31","size_leaf_vector":"1"}},{"base_weights":[-2.374619E-3,-3.8894302E-1,7.642442E-1,1.00388534E-1,-5.5348104E-1,4.7115868E-1,1.0417821E0,3.352035E-1,4.792843E-3,-3.3341524E-1,-6.2551856E-1,3.7725866E-1,6.7637706E-1,9.4593227E-1,1.1970608E0,3.8586536E-3,2.296938E-2,-1.8419197E-2,6.7801997E-3,-2.3928015E-2,-5.635742E-3,-3.7251186E-2,-2.2568133E-2,2.71233E-2,1.5315956E-2,4.405163E-2,2.9377867E-2,1.0592273E-2,4.768018E-2,6.430098E-2,5.1888015E-2],"categories":[],"categories_nodes":[],"categories_segments":[],"categories_sizes":[],"default_left":[0,0,0,0,0,0,0,0,0,0,0,0,0,0,0,0,0,0,0,0,0,0,0,0,0,0,0,0,0,0,0],"id":12,"left_children":[1,3,5,7,9,11,13,15,17,19,21,23,25,27,29,-1,-1,-1,-1,-1,-1,-1,-1,-1,-1,-1,-1,-1,-1,-1,-1],"loss_changes":[2.7019155E3,4.8804974E2,2.4811389E2,3.425351E1,7.170056E1,2.8424927E1,2.2219116E1,1.4111679E1,5.304052E1,3.5849022E1,7.076343E1,1.1827454E1,7.9522705E0,5.288025E0,7.0982666E0,0E0,0E0,0E0,0E0,0E0,0E0,0E0,0E0,0E0,0E0,0E0,0E0,0E0,0E0,0E0,0E0],"parents":[2147483647,0,0,1,1,2,2,3,3,4,4,5,5,6,6,7,7,8,8,9,9,10,10,11,11,12,12,13,13,14,14],"right_children":[2,4,6,8,10,12,14,16,18,20,22,24,26,28,30,-1,-1,-1,-1,-1,-1,-1,-1,-1,-1,-1,-1,-1,-1,-1,-1],"split_conditions":[1.6666667E-1,5.385E3,1E0,5.977778E-4,4.0095557E-2,6.666667E-1,2E0,-1.8333334E0,-1.1666666E0,-8.333333E-1,5.9440833E-1,4.1964408E-2,3.9854754E-2,8E2,8.11175E-1,3.8586536E-3,2.296938E-2,-1.8419197E-2,6.7801997E-3,-2.3928015E-2,-5.635742E-3,-3.7251186E-2,-2.2568133E-2,2.71233E-2,1.5315956E-2,4.405163E-2,2.9377867E-2,1.0592273E-2,4.768018E-2,6.430098E-2,5.1888015E-2],"split_indices":[2,4,2,3,3,2,2,2,2,2,3,5,5,4,3,0,0,0,0,0,0,0,0,0,0,0,0,0,0,0,0],"split_type":[0,0,0,0,0,0,0,0,0,0,0,0,0,0,0,0,0,0,0,0,0,0,0,0,0,0,0,0,0,0,0],"sum_hessian":[9.115291E3,6.060014E3,3.0552766E3,1.525024E3,4.53499E3,1.4873274E3,1.5679492E3,4.405007E2,1.0845233E3,1.1197916E3,3.4151987E3,1.0223691E3,4.6495822E2,9.738851E2,5.9406415E2,1.4364851E2,2.968522E2,2.81019E2,8.035044E2,6.748221E2,4.4496948E2,2.0234424E3,1.3917563E3,3.051274E2,7.172417E2,1.3801932E2,3.269389E2,1.0367989E1,9.635171E2,3.766547E2,2.1740942E2],"tree_param":{"num_deleted":"0","num_feature":"6","num_nodes":"31","size_leaf_vector":"1"}},{"base_weights":[-2.1716612E-3,-3.6339977E-1,7.180722E-1,1.5127847E-1,-4.8196074E-1,4.466483E-1,9.779605E-1,8.2456596E-2,4.9823254E-1,-2.2018711E-1,-5.588483E-1,3.517973E-1,6.562741E-1,8.681888E-1,1.1471139E0,-1.7838463E-2,8.765337E-3,3.7406508E-2,-6.91077E-4,-1.9341325E-2,2.6929183E-3,-1.5557586E-2,-3.3501577E-2,1.0115716E-2,2.1142758E-2,3.5433706E-2,2.3431486E-2,4.1516904E-2,5.302098E-2,5.780093E-2,-7.2558383E-3],"categories":[],"categories_nodes":[],"categories_segments":[],"categories_sizes":[],"default_left":[0,0,0,0,0,0,0,0,0,0,0,0,0,0,0,0,0,0,0,0,0,0,0,0,0,0,0,0,0,0,0],"id":13,"left_children":[1,3,5,7,9,11,13,15,17,19,21,23,25,27,29,-1,-1,-1,-1,-1,-1,-1,-1,-1,-1,-1,-1,-1,-1,-1,-1],"loss_changes":[2.3567356E3,3.6819464E2,2.1299097E2,2.6947418E1,9.856958E1,2.92323E1,2.768872E1,3.8576206E1,2.3925026E1,5.0934826E1,1.04154785E2,1.0773811E1,4.195389E0,5.9660645E0,7.1278687E0,0E0,0E0,0E0,0E0,0E0,0E0,0E0,0E0,0E0,0E0,0E0,0E0,0E0,0E0,0E0,0E0],"parents":[2147483647,0,0,1,1,2,2,3,3,4,4,5,5,6,6,7,7,8,8,9,9,10,10,11,11,12,12,13,13,14,14],"right_children":[2,4,6,8,10,12,14,16,18,20,22,24,26,28,30,-1,-1,-1,-1,-1,-1,-1,-1,-1,-1,-1,-1,-1,-1,-1,-1],"split_conditions":[1.6666667E-1,3.619E3,1E0,3.1E5,2.88E-2,6.666667E-1,2E0,-1.8333334E0,8E2,-8.333333E-1,7E4,4.1366E-1,1.4E5,1.8E5,1.1685817E0,-1.7838463E-2,8.765337E-3,3.7406508E-2,-6.91077E-4,-1.9341325E-2,2.6929183E-3,-1.5557586E-2,-3.3501577E-2,1.0115716E-2,2.1142758E-2,3.5433706E-2,2.3431486E-2,4.1516904E-2,5.302098E-2,5.780093E-2,-7.2558383E-3],"split_indices":[2,4,2,0,3,2,2,2,4,2,0,3,0,0,3,0,0,0,0,0,0,0,0,0,0,0,0,0,0,0,0],"split_type":[0,0,0,0,0,0,0,0,0,0,0,0,0,0,0,0,0,0,0,0,0,0,0,0,0,0,0,0,0,0,0],"sum_hessian":[9.05636E3,6.0317285E3,3.0246323E3,1.129265E3,4.9024634E3,1.4808114E3,1.543821E3,9.433747E2,1.8589032E2,1.1139025E3,3.7885608E3,1.0213511E3,4.594604E2,9.399651E2,6.038559E2,1.6412798E2,7.792467E2,1.2461397E2,6.1276352E1,6.9243854E2,4.21464E2,1.1748964E3,2.6136646E3,3.3031696E2,6.910341E2,3.5699283E2,1.0246756E2,7.897757E2,1.501894E2,5.998279E2,4.0279737E0],"tree_param":{"num_deleted":"0","num_feature":"6","num_nodes":"31","size_leaf_vector":"1"}},{"base_weights":[2.6376587E-3,-3.4628758E-1,6.8964136E-1,-1.7001064E-2,-5.3260183E-1,4.0765893E-1,9.6205217E-1,-3.8657686E-1,7.2557025E-2,-6.230197E-1,-3.8028577E-1,3.2230887E-1,5.97432E-1,8.684787E-1,1.111955E0,6.5933126E-3,-3.221586E-2,1.2322643E-2,-4.25431E-3,-2.4204334E-2,-4.304315E-2,-1.0494579E-2,-2.4907043E-2,3.056837E-2,1.3576855E-2,-6.799849E-2,3.0271268E-2,9.284481E-3,4.3736454E-2,6.0464334E-2,4.7555506E-2],"categories":[],"categories_nodes":[],"categories_segments":[],"categories_sizes":[],"default_left":[0,0,0,0,0,0,0,0,0,0,0,0,0,0,0,0,0,0,0,0,0,0,0,0,0,0,0,0,0,0,0],"id":14,"left_children":[1,3,5,7,9,11,13,15,17,19,21,23,25,27,29,-1,-1,-1,-1,-1,-1,-1,-1,-1,-1,-1,-1,-1,-1,-1,-1],"loss_changes":[2.1724436E3,3.6871942E2,2.3408789E2,7.194543E1,5.2625E1,2.4129822E1,2.0802368E1,5.673972E1,4.799025E1,7.912079E1,2.865944E1,1.50672455E1,8.09375E0,3.9345703E0,8.1311035E0,0E0,0E0,0E0,0E0,0E0,0E0,0E0,0E0,0E0,0E0,0E0,0E0,0E0,0E0,0E0,0E0],"parents":[2147483647,0,0,1,1,2,2,3,3,4,4,5,5,6,6,7,7,8,8,9,9,10,10,11,11,12,12,13,13,14,14],"right_children":[2,4,6,8,10,12,14,16,18,20,22,24,26,28,30,-1,-1,-1,-1,-1,-1,-1,-1,-1,-1,-1,-1,-1,-1,-1,-1],"split_conditions":[1.6666667E-1,5.162E3,1E0,-1.8333334E0,5.9440833E-1,6.666667E-1,2E0,3.3E2,3.763E3,3.2235166E4,4.7950168E4,5.295E3,6.663333E2,6.15E2,8.008133E-1,6.5933126E-3,-3.221586E-2,1.2322643E-2,-4.25431E-3,-2.4204334E-2,-4.304315E-2,-1.0494579E-2,-2.4907043E-2,3.056837E-2,1.3576855E-2,-6.799849E-2,3.0271268E-2,9.284481E-3,4.3736454E-2,6.0464334E-2,4.7555506E-2],"split_indices":[2,1,2,2,3,2,2,4,4,1,1,4,1,4,3,0,0,0,0,0,0,0,0,0,0,0,0,0,0,0,0],"split_type":[0,0,0,0,0,0,0,0,0,0,0,0,0,0,0,0,0,0,0,0,0,0,0,0,0,0,0,0,0,0,0],"sum_hessian":[9.060692E3,6.009167E3,3.0515254E3,2.171829E3,3.8373376E3,1.5006469E3,1.5508784E3,4.2298737E2,1.7488417E3,2.4059985E3,1.4313392E3,1.0369701E3,4.636768E2,9.5902344E2,5.91855E2,1.4061981E2,2.8236755E2,8.3128735E2,9.175543E2,1.5207235E3,8.85275E2,5.863618E2,8.449774E2,1.5327707E2,8.8369305E2,1.1978941E0,4.624789E2,8.977918E0,9.5004553E2,3.6466666E2,2.2718832E2],"tree_param":{"num_deleted":"0","num_feature":"6","num_nodes":"31","size_leaf_vector":"1"}},{"base_weights":[-7.3347683E-3,-3.3578512E-1,6.5464735E-1,9.295843E-2,-4.5503116E-1,3.997021E-1,9.055874E-1,4.4146735E-2,3.8720024E-1,-5.106457E-1,-2.5302696E-1,3.2347146E-1,5.6546634E-1,8.219966E-1,1.0446346E0,-9.259011E-3,5.3947233E-3,-7.885595E-2,2.0978538E-2,-1.4719458E-2,-3.0405978E-2,-7.449283E-3,-3.3714645E-2,2.5352776E-2,1.190195E-2,2.8952334E-2,-2.8319333E-2,3.923064E-2,5.0282557E-2,5.3116437E-2,2.0325249E-2],"categories":[],"categories_nodes":[],"categories_segments":[],"categories_sizes":[],"default_left":[0,0,0,0,0,0,0,0,0,0,0,0,0,0,0,0,0,0,0,0,0,0,0,0,0,0,0,0,0,0,0],"id":15,"left_children":[1,3,5,7,9,11,13,15,17,19,21,23,25,27,29,-1,-1,-1,-1,-1,-1,-1,-1,-1,-1,-1,-1,-1,-1,-1,-1],"loss_changes":[1.9433052E3,3.054549E2,1.8925928E2,1.8664877E1,5.2379883E1,1.8418121E1,1.6493652E1,1.6346582E1,1.2421942E1,7.705536E1,4.4210556E1,1.5730606E1,7.434967E0,5.6447144E0,5.8554688E0,0E0,0E0,0E0,0E0,0E0,0E0,0E0,0E0,0E0,0E0,0E0,0E0,0E0,0E0,0E0,0E0],"parents":[2147483647,0,0,1,1,2,2,3,3,4,4,5,5,6,6,7,7,8,8,9,9,10,10,11,11,12,12,13,13,14,14],"right_children":[2,4,6,8,10,12,14,16,18,20,22,24,26,28,30,-1,-1,-1,-1,-1,-1,-1,-1,-1,-1,-1,-1,-1,-1,-1,-1],"split_conditions":[1.6666667E-1,4.524E3,1E0,3.1E5,8.747355E-1,6.666667E-1,2E0,-1.5E0,0E0,8E4,6.7561E4,7.764E3,1.15269E5,1.8E5,1.251334E-1,-9.259011E-3,5.3947233E-3,-7.885595E-2,2.0978538E-2,-1.4719458E-2,-3.0405978E-2,-7.449283E-3,-3.3714645E-2,2.5352776E-2,1.190195E-2,2.8952334E-2,-2.8319333E-2,3.923064E-2,5.0282557E-2,5.3116437E-2,2.0325249E-2],"split_indices":[2,4,2,0,5,2,2,2,5,0,4,4,4,0,5,0,0,0,0,0,0,0,0,0,0,0,0,0,0,0,0],"split_type":[0,0,0,0,0,0,0,0,0,0,0,0,0,0,0,0,0,0,0,0,0,0,0,0,0,0,0,0,0,0,0],"sum_hessian":[8.935674E3,5.972727E3,2.962947E3,1.2997516E3,4.672975E3,1.4710306E3,1.4919165E3,1.1158016E3,1.8394998E2,3.6629792E3,1.00999615E3,1.009664E3,4.613666E2,9.360838E2,5.558327E2,2.4228769E2,8.735139E2,2.2085583E0,1.8174142E2,1.1393116E3,2.5236675E3,8.110439E2,1.989523E2,3.1907504E2,6.90589E2,4.5637924E2,4.9873643E0,7.8214606E2,1.539377E2,5.4018945E2,1.5643231E1],"tree_param":{"num_deleted":"0","num_feature":"6","num_nodes":"31","size_leaf_vector":"1"}},{"base_weights":[6.447357E-3,-3.1798357E-1,6.574459E-1,9.8695725E-2,-4.5530936E-1,4.2647427E-1,8.9033955E-1,3.0814562E-2,5.302791E-1,-2.450646E-1,-5.327626E-1,3.4109998E-1,6.151625E-1,7.8768235E-1,1.0523329E0,6.6794977E-3,-1.2286052E-2,2.8976247E-2,-2.103469E-3,3.8750688E-4,-1.5531212E-2,-1.713848E-2,-3.0555153E-2,4.113954E-2,1.5644273E-2,4.5788687E-2,2.7547881E-2,3.7516516E-2,4.8881408E-2,5.662653E-2,4.58104E-2],"categories":[],"categories_nodes":[],"categories_segments":[],"categories_sizes":[],"default_left":[0,0,0,0,0,0,0,0,0,0,0,0,0,0,0,0,0,0,0,0,0,0,0,0,0,0,0,0,0,0,0],"id":16,"left_children":[1,3,5,7,9,11,13,15,17,19,21,23,25,27,29,-1,-1,-1,-1,-1,-1,-1,-1,-1,-1,-1,-1,-1,-1,-1,-1],"loss_changes":[1.8882344E3,3.4146802E2,1.5957458E2,4.3337982E1,7.295117E1,2.3871216E1,2.377832E1,3.6405823E1,5.6914597E0,2.0058708E1,4.85932E1,1.3760529E1,8.4592285E0,5.720703E0,5.195862E0,0E0,0E0,0E0,0E0,0E0,0E0,0E0,0E0,0E0,0E0,0E0,0E0,0E0,0E0,0E0,0E0],"parents":[2147483647,0,0,1,1,2,2,3,3,4,4,5,5,6,6,7,7,8,8,9,9,10,10,11,11,12,12,13,13,14,14],"right_children":[2,4,6,8,10,12,14,16,18,20,22,24,26,28,30,-1,-1,-1,-1,-1,-1,-1,-1,-1,-1,-1,-1,-1,-1,-1,-1],"split_conditions":[1.6666667E-1,1.7891666E3,1E0,-5E-1,7E4,6.666667E-1,2E0,7.691667E2,3.2768E5,8.0091665E3,1.0541667E4,1.9858334E3,3E4,1.8E5,8.11175E-1,6.6794977E-3,-1.2286052E-2,2.8976247E-2,-2.103469E-3,3.8750688E-4,-1.5531212E-2,-1.713848E-2,-3.0555153E-2,4.113954E-2,1.5644273E-2,4.5788687E-2,2.7547881E-2,3.7516516E-2,4.8881408E-2,5.662653E-2,4.58104E-2],"split_indices":[2,1,2,2,0,2,2,1,0,1,1,1,0,0,3,0,0,0,0,0,0,0,0,0,0,0,0,0,0,0,0],"split_type":[0,0,0,0,0,0,0,0,0,0,0,0,0,0,0,0,0,0,0,0,0,0,0,0,0,0,0,0,0,0,0],"sum_hessian":[8.938342E3,5.9657627E3,2.9725793E3,1.4788524E3,4.48691E3,1.4938696E3,1.4787098E3,1.2787905E3,2.000619E2,1.2090745E3,3.2778357E3,1.0304414E3,4.6342813E2,9.087109E2,5.6999896E2,9.326754E2,3.4611508E2,1.8420045E2,1.5861448E1,2.4915416E2,9.5992035E2,9.5853955E2,2.3192961E3,5.5458984E1,9.749825E2,7.922559E1,3.8420255E2,7.635184E2,1.451925E2,3.5407596E2,2.15923E2],"tree_param":{"num_deleted":"0","num_feature":"6","num_nodes":"31","size_leaf_vector":"1"}},{"base_weights":[-3.377372E-4,-2.9388908E-1,6.0919815E-1,1.1317673E-1,-4.1305774E-1,3.5804793E-1,8.578478E-1,5.116537E-2,5.232299E-1,-2.3430172E-1,-5.177492E-1,2.9210684E-1,5.131183E-1,7.619065E-1,1.0177418E0,1.2781712E-2,-2.9038575E-3,2.7848467E-2,-2.4638373E-2,-2.6070771E-3,-1.5878875E-2,-1.5795793E-2,-2.996989E-2,1.5183522E-2,-3.0554146E-2,5.746143E-2,2.4276078E-2,4.0802304E-2,3.0011669E-2,5.5440586E-2,4.3798905E-2],"categories":[],"categories_nodes":[],"categories_segments":[],"categories_sizes":[],"default_left":[0,0,0,0,0,0,0,0,0,0,0,0,0,0,0,0,0,0,0,0,0,0,0,0,0,0,0,0,0,0,0],"id":17,"left_children":[1,3,5,7,9,11,13,15,17,19,21,23,25,27,29,-1,-1,-1,-1,-1,-1,-1,-1,-1,-1,-1,-1,-1,-1,-1,-1],"loss_changes":[1.5814761E3,2.8943152E2,1.7910632E2,3.4344482E1,8.624133E1,1.4483063E1,2.136023E1,2.6266178E1,6.3574677E0,2.5867378E1,4.7757507E1,1.0696381E1,6.913948E0,7.4386597E0,5.9764404E0,0E0,0E0,0E0,0E0,0E0,0E0,0E0,0E0,0E0,0E0,0E0,0E0,0E0,0E0,0E0,0E0],"parents":[2147483647,0,0,1,1,2,2,3,3,4,4,5,5,6,6,7,7,8,8,9,9,10,10,11,11,12,12,13,13,14,14],"right_children":[2,4,6,8,10,12,14,16,18,20,22,24,26,28,30,-1,-1,-1,-1,-1,-1,-1,-1,-1,-1,-1,-1,-1,-1,-1,-1],"split_conditions":[1.6666667E-1,1.4505E3,1E0,-5E-1,1E5,6.666667E-1,2E0,5.7833332E1,1.3733334E3,1.28315E4,8.4695E3,4.6E5,1.4505E3,8.6826795E-1,8.008133E-1,1.2781712E-2,-2.9038575E-3,2.7848467E-2,-2.4638373E-2,-2.6070771E-3,-1.5878875E-2,-1.5795793E-2,-2.996989E-2,1.5183522E-2,-3.0554146E-2,5.746143E-2,2.4276078E-2,4.0802304E-2,3.0011669E-2,5.5440586E-2,4.3798905E-2],"split_indices":[2,1,2,2,0,2,2,1,1,1,1,0,1,3,3,0,0,0,0,0,0,0,0,0,0,0,0,0,0,0,0],"split_type":[0,0,0,0,0,0,0,0,0,0,0,0,0,0,0,0,0,0,0,0,0,0,0,0,0,0,0,0,0,0,0],"sum_hessian":[8.836515E3,5.9645273E3,2.8719873E3,1.350711E3,4.613816E3,1.4300231E3,1.4419641E3,1.1742559E3,1.7645515E2,1.705311E3,2.9085051E3,1.00538403E3,4.2463904E2,9.048133E2,5.371509E2,4.0843994E2,7.658159E2,1.7122101E2,5.234141E0,5.35521E2,1.16979E3,8.391111E2,2.069394E3,9.9333014E2,1.2053908E1,1.59664545E1,4.0867258E2,6.747963E2,2.3001694E2,3.2289764E2,2.1425323E2],"tree_param":{"num_deleted":"0","num_feature":"6","num_nodes":"31","size_leaf_vector":"1"}},{"base_weights":[2.205616E-4,-2.9812422E-1,6.002001E-1,-8.496867E-3,-4.0239412E-1,3.8628265E-1,8.2348037E-1,2.5205427E-1,-1.0121304E-1,-1.7036763E-1,-5.063613E-1,5.865976E-1,3.188222E-1,7.209563E-1,9.884281E-1,6.9484347E-3,2.8963445E-2,-1.8215591E-2,4.478037E-3,1.4122608E-2,-1.0111369E-2,-2.7877996E-2,-1.3913693E-2,1.2480725E-2,3.2019928E-2,2.0136924E-2,2.9271664E-3,3.6368184E-2,-1.888155E-2,5.6171197E-2,4.481259E-2],"categories":[],"categories_nodes":[],"categories_segments":[],"categories_sizes":[],"default_left":[0,0,0,0,0,0,0,0,0,0,0,0,0,0,0,0,0,0,0,0,0,0,0,0,0,0,0,0,0,0,0],"id":18,"left_children":[1,3,5,7,9,11,13,15,17,19,21,23,25,27,29,-1,-1,-1,-1,-1,-1,-1,-1,-1,-1,-1,-1,-1,-1,-1,-1],"loss_changes":[1.5879882E3,1.7893115E2,1.4040796E2,3.7939804E1,1.0500922E2,2.0171967E1,2.365149E1,1.5172253E1,5.8169163E1,1.9527237E1,3.4972046E1,6.699875E0,2.4640472E1,6.5546875E0,5.831299E0,0E0,0E0,0E0,0E0,0E0,0E0,0E0,0E0,0E0,0E0,0E0,0E0,0E0,0E0,0E0,0E0],"parents":[2147483647,0,0,1,1,2,2,3,3,4,4,5,5,6,6,7,7,8,8,9,9,10,10,11,11,12,12,13,13,14,14],"right_children":[2,4,6,8,10,12,14,16,18,20,22,24,26,28,30,-1,-1,-1,-1,-1,-1,-1,-1,-1,-1,-1,-1,-1,-1,-1,-1],"split_conditions":[1.6666667E-1,1.3790909E-2,1E0,3.2824074E-4,7E4,3.944576E-2,2E0,3.2E5,-1E0,1.6E4,7.3153055E-1,4.5973334E-1,1.4E5,6.118398E-1,5.553144E-1,6.9484347E-3,2.8963445E-2,-1.8215591E-2,4.478037E-3,1.4122608E-2,-1.0111369E-2,-2.7877996E-2,-1.3913693E-2,1.2480725E-2,3.2019928E-2,2.0136924E-2,2.9271664E-3,3.6368184E-2,-1.888155E-2,5.6171197E-2,4.481259E-2],"split_indices":[2,3,2,3,0,5,2,0,2,0,3,3,0,5,3,0,0,0,0,0,0,0,0,0,0,0,0,0,0,0,0],"split_type":[0,0,0,0,0,0,0,0,0,0,0,0,0,0,0,0,0,0,0,0,0,0,0,0,0,0,0,0,0,0,0],"sum_hessian":[8.869404E3,5.9241E3,2.9453044E3,1.5684753E3,4.355625E3,1.5055839E3,1.4397206E3,4.1120047E2,1.1572748E3,1.348586E3,3.0070388E3,3.7736188E2,1.1282219E3,8.911765E2,5.4854407E2,3.0664758E2,1.0455291E2,4.8604868E2,6.7122614E2,8.8130486E1,1.2604556E3,2.4546099E3,5.5242883E2,5.2729477E1,3.246324E2,8.527426E2,2.7547937E2,8.8634503E2,4.831539E0,2.1803526E2,3.3050882E2],"tree_param":{"num_deleted":"0","num_feature":"6","num_nodes":"31","size_leaf_vector":"1"}},{"base_weights":[4.4996813E-3,1.6329518E-1,-1.9711551E-1,3.2113305E-1,9.318584E-2,2.7722162E-1,-3.2049152E-1,3.5055777E-1,-3.3875987E-2,2.139781E-1,2.2379914E-2,2.0880951E-1,6.05075E-1,-1.5167496E-1,-4.5278746E-1,3.572411E-2,1.5660763E-2,4.673505E-2,-9.317955E-3,8.974091E-3,2.161173E-2,1.9971574E-2,-9.2837954E-4,-3.7048787E-2,1.1615627E-2,2.4318416E-2,4.4608727E-2,-4.9621053E-3,-1.622112E-2,-3.0571297E-2,-9.386328E-3],"categories":[],"categories_nodes":[],"categories_segments":[],"categories_sizes":[],"default_left":[0,0,0,0,0,0,0,0,0,0,0,0,0,0,0,0,0,0,0,0,0,0,0,0,0,0,0,0,0,0,0],"id":19,"left_children":[1,3,5,7,9,11,13,15,17,19,21,23,25,27,29,-1,-1,-1,-1,-1,-1,-1,-1,-1,-1,-1,-1,-1,-1,-1,-1],"loss_changes":[2.814507E2,5.4389267E1,2.2676215E2,1.5807648E1,2.9131245E1,1.7817848E1,6.859137E1,1.8754196E1,1.7402567E1,9.400032E0,3.318336E1,1.4982136E1,4.2553596E0,1.2215616E1,7.2338135E1,0E0,0E0,0E0,0E0,0E0,0E0,0E0,0E0,0E0,0E0,0E0,0E0,0E0,0E0,0E0,0E0],"parents":[2147483647,0,0,1,1,2,2,3,3,4,4,5,5,6,6,7,7,8,8,9,9,10,10,11,11,12,12,13,13,14,14],"right_children":[2,4,6,8,10,12,14,16,18,20,22,24,26,28,30,-1,-1,-1,-1,-1,-1,-1,-1,-1,-1,-1,-1,-1,-1,-1,-1],"split_conditions":[1.5E5,5E4,3.642355E-2,6.8373674E-1,4.3033253E-2,8.3233887E-1,8.4695E3,1.3206458E-1,1.6E4,4.1304663E-2,8.233333E2,-8.6433336E-4,3E5,1.0962698E0,4.273738E-1,3.572411E-2,1.5660763E-2,4.673505E-2,-9.317955E-3,8.974091E-3,2.161173E-2,1.9971574E-2,-9.2837954E-4,-3.7048787E-2,1.1615627E-2,2.4318416E-2,4.4608727E-2,-4.9621053E-3,-1.622112E-2,-3.0571297E-2,-9.386328E-3],"split_indices":[0,0,5,5,5,3,1,3,0,5,1,3,0,5,3,0,0,0,0,0,0,0,0,0,0,0,0,0,0,0,0],"split_type":[0,0,0,0,0,0,0,0,0,0,0,0,0,0,0,0,0,0,0,0,0,0,0,0,0,0,0,0,0,0,0],"sum_hessian":[8.789048E3,4.916735E3,3.8723127E3,1.5111307E3,3.4056042E3,7.9903986E2,3.073273E3,1.3954797E3,1.1565102E2,1.2578083E3,2.147796E3,6.624463E2,1.365936E2,1.3512078E3,1.7220652E3,1.2817804E2,1.2673016E3,1.5032743E1,1.0061827E2,1.0877134E3,1.7009494E2,2.095421E2,1.9382539E3,1.5259633E1,6.4718665E2,9.8543144E1,3.805044E1,1.0377892E3,3.1341855E2,1.0764844E3,6.455808E2],"tree_param":{"num_deleted":"0","num_feature":"6","num_nodes":"31","size_leaf_vector":"1"}},{"base_weights":[-3.6791987E-3,-2.835959E-1,5.6788856E-1,1.05670705E-1,-3.7439185E-1,2.6498172E-1,7.3574024E-1,-1.5458961E-1,1.9747494E-1,-1.1996854E-1,-4.1646162E-1,6.1288977E-1,2.3691602E-1,6.5263164E-1,9.4843256E-1,-2.5490373E-2,9.730752E-3,1.9360654E-2,3.5355058E-3,-1.1332667E-2,1.8980438E-2,-1.4062636E-2,-2.5279153E-2,3.2470953E-2,-2.3201969E-2,-5.5115707E-2,1.239329E-2,2.6991462E-2,3.553369E-2,4.8235577E-2,5.6046234E-3],"categories":[],"categories_nodes":[],"categories_segments":[],"categories_sizes":[],"default_left":[0,0,0,0,0,0,0,0,0,0,0,0,0,0,0,0,0,0,0,0,0,0,0,0,0,0,0,0,0,0,0],"id":20,"left_children":[1,3,5,7,9,11,13,15,17,19,21,23,25,27,29,-1,-1,-1,-1,-1,-1,-1,-1,-1,-1,-1,-1,-1,-1,-1,-1],"loss_changes":[1.3966368E3,2.0714471E2,1.4571143E2,2.652908E1,5.0809814E1,9.861023E0,3.2010864E1,3.604171E1,1.970244E1,3.609506E1,4.8986267E1,3.285942E0,1.4202976E1,8.327576E0,6.922943E0,0E0,0E0,0E0,0E0,0E0,0E0,0E0,0E0,0E0,0E0,0E0,0E0,0E0,0E0,0E0,0E0],"parents":[2147483647,0,0,1,1,2,2,3,3,4,4,5,5,6,6,7,7,8,8,9,9,10,10,11,11,12,12,13,13,14,14],"right_children":[2,4,6,8,10,12,14,16,18,20,22,24,26,28,30,-1,-1,-1,-1,-1,-1,-1,-1,-1,-1,-1,-1,-1,-1,-1,-1],"split_conditions":[1.6666667E-1,3.619E3,6.666667E-1,-1.5E0,1.3790909E-2,3.619E3,2E0,2.2E5,8E2,-5E-1,1E5,2.7E5,7.3443335E-3,1E0,1.0799E0,-2.5490373E-2,9.730752E-3,1.9360654E-2,3.5355058E-3,-1.1332667E-2,1.8980438E-2,-1.4062636E-2,-2.5279153E-2,3.2470953E-2,-2.3201969E-2,-5.5115707E-2,1.239329E-2,2.6991462E-2,3.553369E-2,4.8235577E-2,5.6046234E-3],"split_indices":[2,4,2,2,3,4,2,0,4,2,0,0,3,2,3,0,0,0,0,0,0,0,0,0,0,0,0,0,0,0,0],"split_type":[0,0,0,0,0,0,0,0,0,0,0,0,0,0,0,0,0,0,0,0,0,0,0,0,0,0,0,0,0,0,0],"sum_hessian":[8.727446E3,5.8587266E3,2.8687195E3,1.108051E3,4.750676E3,1.0237782E3,1.8449412E3,2.8875665E2,8.192944E2,6.7462555E2,4.07605E3,7.486756E1,9.489106E2,1.3295095E3,5.1543176E2,1.4291788E2,1.4583879E2,3.2731842E2,4.9197592E2,5.563609E2,1.1826464E2,1.620975E3,2.455075E3,7.279533E1,2.0722325E0,6.8872275E0,9.420234E2,4.5518256E2,8.743269E2,5.054401E2,9.991653E0],"tree_param":{"num_deleted":"0","num_feature":"6","num_nodes":"31","size_leaf_vector":"1"}},{"base_weights":[-8.924372E-3,-2.7903113E-1,5.4497206E-1,-9.314979E-3,-4.013812E-1,3.254753E-1,7.7315843E-1,2.678479E-1,-8.658572E-2,-4.560776E-1,-2.423991E-1,2.4515888E-1,5.1009345E-1,6.8900627E-1,9.198827E-1,7.1200016E-3,3.1961977E-2,-1.5840877E-2,1.249769E-4,-1.2469217E-2,-2.7834466E-2,-1.4811153E-2,1.3213947E-2,2.6557727E-2,9.7579835E-3,1.51712615E-2,2.8562022E-2,3.6675222E-2,2.7781993E-2,5.1522274E-2,3.6439262E-2],"categories":[],"categories_nodes":[],"categories_segments":[],"categories_sizes":[],"default_left":[0,0,0,0,0,0,0,0,0,0,0,0,0,0,0,0,0,0,0,0,0,0,0,0,0,0,0,0,0,0,0],"id":21,"left_children":[1,3,5,7,9,11,13,15,17,19,21,23,25,27,29,-1,-1,-1,-1,-1,-1,-1,-1,-1,-1,-1,-1,-1,-1,-1,-1],"loss_changes":[1.3009232E3,1.9288062E2,1.4251044E2,3.9109474E1,3.4854736E1,2.1442886E1,1.6612366E1,1.8457796E1,2.9287827E1,6.2052307E1,2.8206089E1,1.4417873E1,5.387413E0,4.883972E0,9.942627E0,0E0,0E0,0E0,0E0,0E0,0E0,0E0,0E0,0E0,0E0,0E0,0E0,0E0,0E0,0E0,0E0],"parents":[2147483647,0,0,1,1,2,2,3,3,4,4,5,5,6,6,7,7,8,8,9,9,10,10,11,11,12,12,13,13,14,14],"right_children":[2,4,6,8,10,12,14,16,18,20,22,24,26,28,30,-1,-1,-1,-1,-1,-1,-1,-1,-1,-1,-1,-1,-1,-1,-1,-1],"split_conditions":[1.6666667E-1,7.091E3,1E0,3.2824074E-4,6.821E-1,6.666667E-1,2E0,3.2E5,-1E0,4.1985415E-2,3E5,5.2E3,7E3,8.6826795E-1,8.11175E-1,7.1200016E-3,3.1961977E-2,-1.5840877E-2,1.249769E-4,-1.2469217E-2,-2.7834466E-2,-1.4811153E-2,1.3213947E-2,2.6557727E-2,9.7579835E-3,1.51712615E-2,2.8562022E-2,3.6675222E-2,2.7781993E-2,5.1522274E-2,3.6439262E-2],"split_indices":[2,4,2,3,3,2,2,0,2,3,0,4,4,3,3,0,0,0,0,0,0,0,0,0,0,0,0,0,0,0,0],"split_type":[0,0,0,0,0,0,0,0,0,0,0,0,0,0,0,0,0,0,0,0,0,0,0,0,0,0,0,0,0,0,0],"sum_hessian":[8.693346E3,5.8440166E3,2.8493293E3,1.8240476E3,4.0199688E3,1.4535543E3,1.3957751E3,3.971264E2,1.4269213E3,2.9895657E3,1.0304031E3,1.01452325E3,4.39031E2,8.906489E2,5.051262E2,2.978894E2,9.923701E1,3.973791E2,1.0295421E3,9.799234E2,2.0096423E3,9.3183093E2,9.857217E1,1.4953859E2,8.649847E2,1.0159988E2,3.3743112E2,6.644523E2,2.261967E2,3.1720786E2,1.8791835E2],"tree_param":{"num_deleted":"0","num_feature":"6","num_nodes":"31","size_leaf_vector":"1"}},{"base_weights":[-3.626801E-4,1.19771376E-1,-1.9467066E-1,3.1052074E-1,5.4905307E-2,-3.8356322E-1,1.11438595E-1,6.205646E-1,2.7802572E-1,2.830131E-1,1.2600602E-3,5.807476E-2,-4.2194265E-1,3.9423472E-1,-4.809679E-3,7.8095943E-3,4.0560562E-2,1.4955565E-2,-4.6807393E-3,1.1110545E-2,2.9893834E-2,4.8749507E-3,-7.7014617E-3,2.3715578E-2,-3.1178803E-3,-1.7284228E-2,-3.1127397E-2,7.152272E-3,2.8400976E-2,8.09619E-3,-5.7388865E-3],"categories":[],"categories_nodes":[],"categories_segments":[],"categories_sizes":[],"default_left":[0,0,0,0,0,0,0,0,0,0,0,0,0,0,0,0,0,0,0,0,0,0,0,0,0,0,0,0,0,0,0],"id":22,"left_children":[1,3,5,7,9,11,13,15,17,19,21,23,25,27,29,-1,-1,-1,-1,-1,-1,-1,-1,-1,-1,-1,-1,-1,-1,-1,-1],"loss_changes":[2.02468E2,6.630081E1,1.9165196E2,1.3528442E1,4.8958256E1,3.4762665E1,4.159862E1,1.1222721E1,9.687912E0,1.4450573E1,4.843853E1,8.287882E0,2.8632294E1,1.601006E1,1.6478172E1,0E0,0E0,0E0,0E0,0E0,0E0,0E0,0E0,0E0,0E0,0E0,0E0,0E0,0E0,0E0,0E0],"parents":[2147483647,0,0,1,1,2,2,3,3,4,4,5,5,6,6,7,7,8,8,9,9,10,10,11,11,12,12,13,13,14,14],"right_children":[2,4,6,8,10,12,14,16,18,20,22,24,26,28,30,-1,-1,-1,-1,-1,-1,-1,-1,-1,-1,-1,-1,-1,-1,-1,-1],"split_conditions":[1.7611E4,5E4,6.3735336E-1,1.5E3,3.180811E-2,3.8819153E-2,3.7447486E-2,1.2613334E-2,6.8373674E-1,3.2E5,1.5E5,2.1E5,3.1E5,8.3233887E-1,1.1E5,7.8095943E-3,4.0560562E-2,1.4955565E-2,-4.6807393E-3,1.1110545E-2,2.9893834E-2,4.8749507E-3,-7.7014617E-3,2.3715578E-2,-3.1178803E-3,-1.7284228E-2,-3.1127397E-2,7.152272E-3,2.8400976E-2,8.09619E-3,-5.7388865E-3],"split_indices":[4,0,3,4,5,5,5,3,5,0,0,0,0,3,0,0,0,0,0,0,0,0,0,0,0,0,0,0,0,0,0],"split_type":[0,0,0,0,0,0,0,0,0,0,0,0,0,0,0,0,0,0,0,0,0,0,0,0,0,0,0,0,0,0,0],"sum_hessian":[8.671605E3,5.3588154E3,3.3127905E3,1.3589149E3,3.9999004E3,2.048474E3,1.2643165E3,1.2719698E2,1.231718E3,7.6075934E2,3.239141E3,1.6374309E2,1.8847311E3,3.6761978E2,8.966967E2,3.7550827E1,8.964616E1,1.1657712E3,6.5946686E1,6.390587E2,1.2170066E2,2.0000208E3,1.2391202E3,3.6085712E1,1.2765739E2,1.3675817E3,5.1714935E2,1.510764E2,2.1654338E2,3.5618173E2,5.4051495E2],"tree_param":{"num_deleted":"0","num_feature":"6","num_nodes":"31","size_leaf_vector":"1"}},{"base_weights":[1.9433488E-3,-2.5485566E-1,5.288694E-1,2.0048E-2,-3.741698E-1,2.4933383E-1,6.8625534E-1,2.2994415E-1,-6.1271887E-2,-2.6724327E-1,-4.6878645E-1,4.4137627E-1,1.9158322E-1,6.086614E-1,8.894688E-1,7.0758075E-3,4.9646962E-2,-1.435322E-2,1.1683617E-3,-3.1363647E-3,-1.852643E-2,-1.0632376E-2,-2.9292727E-2,1.0968561E-2,3.9370637E-2,2.4678728E-2,7.140774E-3,3.7381615E-2,2.8271219E-2,4.6306472E-2,3.0871097E-2],"categories":[],"categories_nodes":[],"categories_segments":[],"categories_sizes":[],"default_left":[0,0,0,0,0,0,0,0,0,0,0,0,0,0,0,0,0,0,0,0,0,0,0,0,0,0,0,0,0,0,0],"id":23,"left_children":[1,3,5,7,9,11,13,15,17,19,21,23,25,27,29,-1,-1,-1,-1,-1,-1,-1,-1,-1,-1,-1,-1,-1,-1,-1,-1],"loss_changes":[1.1741873E3,1.9136835E2,1.2491998E2,3.0169895E1,4.103546E1,1.1291855E1,2.8133484E1,3.3159767E1,2.4357258E1,4.0371445E1,6.455914E1,1.798685E1,1.1569906E1,7.5039062E0,4.4182434E0,0E0,0E0,0E0,0E0,0E0,0E0,0E0,0E0,0E0,0E0,0E0,0E0,0E0,0E0,0E0,0E0],"parents":[2147483647,0,0,1,1,2,2,3,3,4,4,5,5,6,6,7,7,8,8,9,9,10,10,11,11,12,12,13,13,14,14],"right_children":[2,4,6,8,10,12,14,16,18,20,22,24,26,28,30,-1,-1,-1,-1,-1,-1,-1,-1,-1,-1,-1,-1,-1,-1,-1,-1],"split_conditions":[1.6666667E-1,6.731E3,6.666667E-1,2.020283E-2,0E0,3.944576E-2,2E0,-6.666667E-1,9.714257E-2,1.7611E4,8E4,3.621635E-2,5.1E3,3.6625225E-2,3.1666667E0,7.0758075E-3,4.9646962E-2,-1.435322E-2,1.1683617E-3,-3.1363647E-3,-1.852643E-2,-1.0632376E-2,-2.9292727E-2,1.0968561E-2,3.9370637E-2,2.4678728E-2,7.140774E-3,3.7381615E-2,2.8271219E-2,4.6306472E-2,3.0871097E-2],"split_indices":[2,4,2,5,2,5,2,2,5,4,0,5,4,5,2,0,0,0,0,0,0,0,0,0,0,0,0,0,0,0,0],"split_type":[0,0,0,0,0,0,0,0,0,0,0,0,0,0,0,0,0,0,0,0,0,0,0,0,0,0,0,0,0,0,0],"sum_hessian":[8.675498E3,5.833191E3,2.842307E3,1.765728E3,4.067463E3,1.0247742E3,1.8175328E3,4.925559E2,1.2731721E3,1.9113102E3,2.1561528E3,2.3538571E2,7.893885E2,1.3181953E3,4.9933743E2,4.4246185E2,5.0094044E1,3.4647803E2,9.266941E2,6.418956E2,1.2694146E3,6.7722833E2,1.4789244E3,1.4438637E2,9.099934E1,1.0848441E2,6.809041E2,3.0893546E2,1.0092599E3,4.3791974E2,6.1417675E1],"tree_param":{"num_deleted":"0","num_feature":"6","num_nodes":"31","size_leaf_vector":"1"}},{"base_weights":[-9.6854323E-4,-2.3284385E-1,4.8781183E-1,8.139517E-3,-3.72541E-1,2.764179E-1,7.139855E-1,-9.783159E-2,2.3404247E-1,-2.211327E-1,-4.724206E-1,4.5381182E-1,2.198726E-1,6.2334293E-1,8.669117E-1,3.6644381E-3,-1.5965873E-2,1.54995145E-2,-3.2509777E-3,-3.7862863E-2,-9.943871E-3,-2.5516579E-2,4.218438E-3,8.098428E-3,3.0631006E-2,1.4536874E-2,-5.97091E-3,2.933294E-2,4.015893E-2,4.5606762E-2,2.7585492E-2],"categories":[],"categories_nodes":[],"categories_segments":[],"categories_sizes":[],"default_left":[0,0,0,0,0,0,0,0,0,0,0,0,0,0,0,0,0,0,0,0,0,0,0,0,0,0,0,0,0,0,0],"id":24,"left_children":[1,3,5,7,9,11,13,15,17,19,21,23,25,27,29,-1,-1,-1,-1,-1,-1,-1,-1,-1,-1,-1,-1,-1,-1,-1,-1],"loss_changes":[9.753982E2,1.9650821E2,1.3219867E2,5.132487E1,5.577539E1,1.427388E1,1.7994812E1,5.533687E1,1.556916E1,1.7395805E1,4.702066E1,1.5909943E1,2.6207256E1,5.090851E0,6.553528E0,0E0,0E0,0E0,0E0,0E0,0E0,0E0,0E0,0E0,0E0,0E0,0E0,0E0,0E0,0E0,0E0],"parents":[2147483647,0,0,1,1,2,2,3,3,4,4,5,5,6,6,7,7,8,8,9,9,10,10,11,11,12,12,13,13,14,14],"right_children":[2,4,6,8,10,12,14,16,18,20,22,24,26,28,30,-1,-1,-1,-1,-1,-1,-1,-1,-1,-1,-1,-1,-1,-1,-1,-1],"split_conditions":[1.6666667E-1,5.162E3,1E0,-8.333333E-1,1E5,3.944576E-2,2E0,7.691667E2,2.5E5,-8.333333E-1,2.2851783E5,4.91905E4,1.8E5,9.8178E4,3.1666667E0,3.6644381E-3,-1.5965873E-2,1.54995145E-2,-3.2509777E-3,-3.7862863E-2,-9.943871E-3,-2.5516579E-2,4.218438E-3,8.098428E-3,3.0631006E-2,1.4536874E-2,-5.97091E-3,2.933294E-2,4.015893E-2,4.5606762E-2,2.7585492E-2],"split_indices":[2,1,2,2,0,5,2,1,0,2,1,1,0,1,2,0,0,0,0,0,0,0,0,0,0,0,0,0,0,0,0],"split_type":[0,0,0,0,0,0,0,0,0,0,0,0,0,0,0,0,0,0,0,0,0,0,0,0,0,0,0,0,0,0,0],"sum_hessian":[8.604242E3,5.836131E3,2.7681116E3,2.1420127E3,3.6941184E3,1.4319539E3,1.3361578E3,1.4584299E3,6.8358276E2,1.4695817E3,2.2245366E3,3.4441867E2,1.0875352E3,8.4210236E2,4.9405545E2,8.231398E2,6.352901E2,5.451129E2,1.3846982E2,5.725665E1,1.412325E3,2.082805E3,1.417317E2,1.2208396E2,2.223347E2,8.99754E2,1.8778116E2,7.02968E2,1.3913432E2,4.304088E2,6.364663E1],"tree_param":{"num_deleted":"0","num_feature":"6","num_nodes":"31","size_leaf_vector":"1"}},{"base_weights":[6.0198475E-3,-2.2155207E-1,4.8287937E-1,-2.1571346E-2,-3.9887694E-1,3.082515E-1,6.761893E-1,1.2201835E-1,-1.5588167E-1,-5.5190796E-1,-2.5765917E-1,2.5796512E-1,4.2302442E-1,5.8448833E-1,8.320332E-1,2.8585326E-3,2.6860077E-2,-2.849626E-2,-3.6764645E-3,-1.9063128E-2,-3.7060615E-2,-8.334628E-3,-1.6685529E-2,1.3952118E-2,-4.1244086E-2,2.8901456E-2,1.4898049E-2,3.1310942E-2,2.1532675E-2,4.7052998E-2,3.3886533E-2],"categories":[],"categories_nodes":[],"categories_segments":[],"categories_sizes":[],"default_left":[0,0,0,0,0,0,0,0,0,0,0,0,0,0,0,0,0,0,0,0,0,0,0,0,0,0,0,0,0,0,0],"id":25,"left_children":[1,3,5,7,9,11,13,15,17,19,21,23,25,27,29,-1,-1,-1,-1,-1,-1,-1,-1,-1,-1,-1,-1,-1,-1,-1,-1],"loss_changes":[9.283883E2,2.0535876E2,9.308856E1,5.2530148E1,6.6190704E1,8.281982E0,1.8247498E1,3.541461E1,4.794371E1,4.7276306E1,1.1001053E1,2.3361923E1,8.383934E0,5.049774E0,7.4918213E0,0E0,0E0,0E0,0E0,0E0,0E0,0E0,0E0,0E0,0E0,0E0,0E0,0E0,0E0,0E0,0E0],"parents":[2147483647,0,0,1,1,2,2,3,3,4,4,5,5,6,6,7,7,8,8,9,9,10,10,11,11,12,12,13,13,14,14],"right_children":[2,4,6,8,10,12,14,16,18,20,22,24,26,28,30,-1,-1,-1,-1,-1,-1,-1,-1,-1,-1,-1,-1,-1,-1,-1,-1],"split_conditions":[1.6666667E-1,1.0541667E4,1E0,1.3733334E3,5.1514584E-1,5.91605E4,2E0,-5E-1,-1.3333334E0,2.9779166E4,8E4,3.2768E5,9.3488836E4,8.995975E-1,7.6396E-1,2.8585326E-3,2.6860077E-2,-2.849626E-2,-3.6764645E-3,-1.9063128E-2,-3.7060615E-2,-8.334628E-3,-1.6685529E-2,1.3952118E-2,-4.1244086E-2,2.8901456E-2,1.4898049E-2,3.1310942E-2,2.1532675E-2,4.7052998E-2,3.3886533E-2],"split_indices":[2,1,2,1,3,1,2,2,2,1,0,0,1,3,3,0,0,0,0,0,0,0,0,0,0,0,0,0,0,0,0],"split_type":[0,0,0,0,0,0,0,0,0,0,0,0,0,0,0,0,0,0,0,0,0,0,0,0,0,0,0,0,0,0,0],"sum_hessian":[8.553024E3,5.7902676E3,2.762757E3,2.7218186E3,3.068449E3,1.4528813E3,1.3098757E3,1.3155114E3,1.4063073E3,1.4712341E3,1.5972148E3,1.0125099E3,4.403714E2,8.276338E2,4.8224197E2,1.138782E3,1.7672931E2,2.3232501E2,1.1739823E3,7.7533496E2,6.9589923E2,7.287426E2,8.684722E2,9.939062E2,1.8603722E1,1.9502895E2,2.4534245E2,6.486147E2,1.7901915E2,2.7959064E2,2.0265134E2],"tree_param":{"num_deleted":"0","num_feature":"6","num_nodes":"31","size_leaf_vector":"1"}},{"base_weights":[2.924141E-3,-2.211795E-1,4.723046E-1,8.432836E-2,-3.2185265E-1,2.8916168E-1,6.754124E-1,2.3499733E-2,4.7039118E-1,-1.8340304E-1,-4.0762565E-1,4.3315664E-1,2.4393606E-1,5.874708E-1,8.2372093E-1,-1.0207574E-2,4.9283635E-3,2.9639125E-2,4.828062E-3,1.980597E-2,-1.0008873E-2,-1.2322819E-2,-2.5004638E-2,1.4051238E-2,3.3440202E-2,6.336509E-3,2.0049801E-2,2.731269E-2,3.930566E-2,4.33908E-2,2.6380274E-2],"categories":[],"categories_nodes":[],"categories_segments":[],"categories_sizes":[],"default_left":[0,0,0,0,0,0,0,0,0,0,0,0,0,0,0,0,0,0,0,0,0,0,0,0,0,0,0,0,0,0,0],"id":26,"left_children":[1,3,5,7,9,11,13,15,17,19,21,23,25,27,29,-1,-1,-1,-1,-1,-1,-1,-1,-1,-1,-1,-1,-1,-1,-1,-1],"loss_changes":[8.942702E2,1.770054E2,1.0199829E2,3.349978E1,5.132367E1,9.313713E0,1.6496094E1,2.1104849E1,8.827248E0,1.6192165E1,3.9692657E1,1.215918E1,2.0253372E1,6.290619E0,5.8374634E0,0E0,0E0,0E0,0E0,0E0,0E0,0E0,0E0,0E0,0E0,0E0,0E0,0E0,0E0,0E0,0E0],"parents":[2147483647,0,0,1,1,2,2,3,3,4,4,5,5,6,6,7,7,8,8,9,9,10,10,11,11,12,12,13,13,14,14],"right_children":[2,4,6,8,10,12,14,16,18,20,22,24,26,28,30,-1,-1,-1,-1,-1,-1,-1,-1,-1,-1,-1,-1,-1,-1,-1,-1],"split_conditions":[1.6666667E-1,1.7043334E3,1E0,-5E-1,1E5,3.944576E-2,2E0,-1.8333334E0,2.1E5,2.5366392E-2,1.3660333E4,3.572216E-2,5E-1,1.8E5,3E0,-1.0207574E-2,4.9283635E-3,2.9639125E-2,4.828062E-3,1.980597E-2,-1.0008873E-2,-1.2322819E-2,-2.5004638E-2,1.4051238E-2,3.3440202E-2,6.336509E-3,2.0049801E-2,2.731269E-2,3.930566E-2,4.33908E-2,2.6380274E-2],"split_indices":[2,1,2,2,0,5,2,2,0,5,1,5,2,0,2,0,0,0,0,0,0,0,0,0,0,0,0,0,0,0,0],"split_type":[0,0,0,0,0,0,0,0,0,0,0,0,0,0,0,0,0,0,0,0,0,0,0,0,0,0,0,0,0,0,0],"sum_hessian":[8.499492E3,5.7531875E3,2.7463054E3,1.4259844E3,4.327203E3,1.445404E3,1.3009014E3,1.232803E3,1.931814E2,1.6565071E3,2.6706958E3,3.434159E2,1.1019882E3,8.197689E2,4.8113242E2,3.0528137E2,9.2752155E2,1.450926E2,4.8088783E1,4.5963E1,1.6105442E3,9.7498016E2,1.6957157E3,2.1002086E2,1.3339503E2,6.320948E2,4.6989337E2,6.8200684E2,1.3776208E2,4.170919E2,6.404052E1],"tree_param":{"num_deleted":"0","num_feature":"6","num_nodes":"31","size_leaf_vector":"1"}},{"base_weights":[1.2448445E-2,-1.8840544E-1,4.4285545E-1,-3.1822437E-4,-3.1844103E-1,2.5375983E-1,6.5619683E-1,-6.5924786E-2,2.731212E-1,-4.2731082E-1,-1.841604E-1,6.420434E-1,2.3601693E-1,5.770664E-1,7.988327E-1,4.4054193E-3,-1.034806E-2,2.0170117E-2,3.756263E-3,-8.862192E-3,-2.6304288E-2,-1.03941485E-2,9.58359E-3,3.506137E-2,-6.350991E-2,8.925982E-3,1.8137112E-2,2.7311359E-2,4.1552722E-2,4.53576E-2,3.226027E-2],"categories":[],"categories_nodes":[],"categories_segments":[],"categories_sizes":[],"default_left":[0,0,0,0,0,0,0,0,0,0,0,0,0,0,0,0,0,0,0,0,0,0,0,0,0,0,0,0,0,0,0],"id":27,"left_children":[1,3,5,7,9,11,13,15,17,19,21,23,25,27,29,-1,-1,-1,-1,-1,-1,-1,-1,-1,-1,-1,-1,-1,-1,-1,-1],"loss_changes":[7.3479016E2,1.4174203E2,1.08934814E2,4.2532475E1,5.0012634E1,9.736694E0,1.3874573E1,4.155756E1,1.180389E1,4.662744E1,1.3733753E1,7.923321E0,9.947914E0,5.9729614E0,6.9129944E0,0E0,0E0,0E0,0E0,0E0,0E0,0E0,0E0,0E0,0E0,0E0,0E0,0E0,0E0,0E0,0E0],"parents":[2147483647,0,0,1,1,2,2,3,3,4,4,5,5,6,6,7,7,8,8,9,9,10,10,11,11,12,12,13,13,14,14],"right_children":[2,4,6,8,10,12,14,16,18,20,22,24,26,28,30,-1,-1,-1,-1,-1,-1,-1,-1,-1,-1,-1,-1,-1,-1,-1,-1],"split_conditions":[1.6666667E-1,6.9726665E3,1E0,-5E-1,5.553144E-1,1.7043334E3,2E0,7.691667E2,3.1056667E3,1.3947333E4,1.01E5,1.16E4,6.666667E-1,1.3216583E5,7.6396E-1,4.4054193E-3,-1.034806E-2,2.0170117E-2,3.756263E-3,-8.862192E-3,-2.6304288E-2,-1.03941485E-2,9.58359E-3,3.506137E-2,-6.350991E-2,8.925982E-3,1.8137112E-2,2.7311359E-2,4.1552722E-2,4.53576E-2,3.226027E-2],"split_indices":[2,1,2,2,3,1,2,1,1,1,4,4,2,1,3,0,0,0,0,0,0,0,0,0,0,0,0,0,0,0,0],"split_type":[0,0,0,0,0,0,0,0,0,0,0,0,0,0,0,0,0,0,0,0,0,0,0,0,0,0,0,0,0,0,0],"sum_hessian":[8.497737E3,5.7943203E3,2.7034172E3,2.3688909E3,3.4254294E3,1.4343063E3,1.2691111E3,1.9111145E3,4.5777643E2,1.8904998E3,1.5349297E3,6.1139973E1,1.3731663E3,8.195134E2,4.495976E2,9.1364777E2,9.974667E2,2.7547607E2,1.8230035E2,5.360882E2,1.3544116E3,1.4442173E3,9.071234E1,5.991878E1,1.221192E0,9.4624744E2,4.2691885E2,7.335912E2,8.5922264E1,2.6080484E2,1.8879277E2],"tree_param":{"num_deleted":"0","num_feature":"6","num_nodes":"31","size_leaf_vector":"1"}},{"base_weights":[4.692837E-3,-1.8569858E-1,4.1437912E-1,-2.470928E-2,-3.3159158E-1,2.8057852E-1,6.764465E-1,-2.5915858E-1,3.6250997E-2,-7.38625E-2,-3.9451817E-1,1.8667619E-1,4.0323082E-1,5.7393247E-1,7.8078336E-1,-2.021427E-2,8.7768363E-4,1.1651952E-2,-3.2632116E-3,-8.653473E-3,1.3427749E-2,-1.3103842E-2,-2.7723154E-2,7.333313E-3,2.7092427E-2,3.0210456E-2,1.728981E-2,2.6506707E-2,4.2874012E-2,4.1235864E-2,2.2179117E-2],"categories":[],"categories_nodes":[],"categories_segments":[],"categories_sizes":[],"default_left":[0,0,0,0,0,0,0,0,0,0,0,0,0,0,0,0,0,0,0,0,0,0,0,0,0,0,0,0,0,0,0],"id":28,"left_children":[1,3,5,7,9,11,13,15,17,19,21,23,25,27,29,-1,-1,-1,-1,-1,-1,-1,-1,-1,-1,-1,-1,-1,-1,-1,-1],"loss_changes":[6.5525476E2,1.3469814E2,9.326932E1,3.8993465E1,4.8765015E1,2.0266357E1,9.179932E0,2.2616257E1,4.32787E1,2.0145159E1,5.1075592E1,1.4162052E1,8.621368E0,5.231018E0,6.2020264E0,0E0,0E0,0E0,0E0,0E0,0E0,0E0,0E0,0E0,0E0,0E0,0E0,0E0,0E0,0E0,0E0],"parents":[2147483647,0,0,1,1,2,2,3,3,4,4,5,5,6,6,7,7,8,8,9,9,10,10,11,11,12,12,13,13,14,14],"right_children":[2,4,6,8,10,12,14,16,18,20,22,24,26,28,30,-1,-1,-1,-1,-1,-1,-1,-1,-1,-1,-1,-1,-1,-1,-1,-1],"split_conditions":[1.6666667E-1,1.0541667E4,1.3333334E0,-1.5E0,3.7447486E-2,6.666667E-1,2E0,2.9E5,7.691667E2,1.679045E5,1.5E5,3.5597473E-1,3.6625225E-2,2E5,3.1666667E0,-2.021427E-2,8.7768363E-4,1.1651952E-2,-3.2632116E-3,-8.653473E-3,1.3427749E-2,-1.3103842E-2,-2.7723154E-2,7.333313E-3,2.7092427E-2,3.0210456E-2,1.728981E-2,2.6506707E-2,4.2874012E-2,4.1235864E-2,2.2179117E-2],"split_indices":[2,1,2,2,5,2,2,0,1,1,0,5,5,0,2,0,0,0,0,0,0,0,0,0,0,0,0,0,0,0,0],"split_type":[0,0,0,0,0,0,0,0,0,0,0,0,0,0,0,0,0,0,0,0,0,0,0,0,0,0,0,0,0,0,0],"sum_hessian":[8.398635E3,5.734306E3,2.6643281E3,2.7266667E3,3.0076396E3,1.7651748E3,8.9915344E2,5.6199994E2,2.1646667E3,5.9065625E2,2.4169834E3,1.0011886E3,7.6398615E2,4.568175E2,4.4233594E2,3.6835065E2,1.9364932E2,7.3621423E2,1.4284525E3,4.5835406E2,1.3230215E2,1.3236128E3,1.0933706E3,9.0109393E2,1.000947E2,1.676869E2,5.9629926E2,3.9818182E2,5.8635674E1,3.9006815E2,5.226779E1],"tree_param":{"num_deleted":"0","num_feature":"6","num_nodes":"31","size_leaf_vector":"1"}},{"base_weights":[6.6065956E-3,1.247931E-1,-1.1350805E-1,1.8392679E-1,2.2242619E-3,-2.7745274E-1,3.503728E-2,1.9603522E-1,-1.5258318E-1,2.7843595E-1,-1.0182057E-1,-1.7156811E-1,-4.9835327E-1,-6.700753E-2,1.9208252E-1,1.4115601E-2,6.7836195E-3,-8.138954E-2,-4.345953E-3,7.4079554E-3,2.9026007E-2,-7.123807E-4,-1.4121982E-2,-5.2394993E-3,-1.9699624E-2,-8.821499E-3,-3.0275468E-2,2.819154E-4,-1.2763995E-2,7.103239E-3,3.2761823E-2],"categories":[],"categories_nodes":[],"categories_segments":[],"categories_sizes":[],"default_left":[0,0,0,0,0,0,0,0,0,0,0,0,0,0,0,0,0,0,0,0,0,0,0,0,0,0,0,0,0,0,0],"id":29,"left_children":[1,3,5,7,9,11,13,15,17,19,21,23,25,27,29,-1,-1,-1,-1,-1,-1,-1,-1,-1,-1,-1,-1,-1,-1,-1,-1],"loss_changes":[1.1931026E2,3.0703674E1,1.0152118E2,1.1673424E1,3.9677734E1,4.6263016E1,3.5072865E1,1.4329109E1,9.527269E0,1.4780909E1,1.5859144E1,1.987696E1,2.2023636E1,1.8148666E1,1.9874065E1,0E0,0E0,0E0,0E0,0E0,0E0,0E0,0E0,0E0,0E0,0E0,0E0,0E0,0E0,0E0,0E0],"parents":[2147483647,0,0,1,1,2,2,3,3,4,4,5,5,6,6,7,7,8,8,9,9,10,10,11,11,12,12,13,13,14,14],"right_children":[2,4,6,8,10,12,14,16,18,20,22,24,26,28,30,-1,-1,-1,-1,-1,-1,-1,-1,-1,-1,-1,-1,-1,-1,-1,-1],"split_conditions":[1.21E4,1.4E5,4.3335333E-1,9.85485E-1,6.15E2,2.6433E4,8.3233887E-1,5E4,6.15E2,3.2E5,2.4E3,3.1E5,1.85E4,4.0628E4,3E5,1.4115601E-2,6.7836195E-3,-8.138954E-2,-4.345953E-3,7.4079554E-3,2.9026007E-2,-7.123807E-4,-1.4121982E-2,-5.2394993E-3,-1.9699624E-2,-8.821499E-3,-3.0275468E-2,2.819154E-4,-1.2763995E-2,7.103239E-3,3.2761823E-2],"split_indices":[4,0,3,3,4,1,3,0,4,0,1,0,4,4,0,0,0,0,0,0,0,0,0,0,0,0,0,0,0,0,0],"split_type":[0,0,0,0,0,0,0,0,0,0,0,0,0,0,0,0,0,0,0,0,0,0,0,0,0,0,0,0,0,0,0],"sum_hessian":[8.402542E3,4.2352446E3,4.1672974E3,2.856579E3,1.3786656E3,1.9805548E3,2.1867422E3,2.7577656E3,9.8813515E1,3.767684E2,1.00189716E3,1.3400182E3,6.405366E2,1.3258229E3,8.6091943E2,1.1336952E3,1.6240703E3,3.1971357E0,9.561638E1,2.642838E2,1.124846E2,6.7547345E2,3.2642374E2,1.0317335E3,3.0828467E2,1.6062526E2,4.7991138E2,9.573822E2,3.6844064E2,7.781868E2,8.2732605E1],"tree_param":{"num_deleted":"0","num_feature":"6","num_nodes":"31","size_leaf_vector":"1"}},{"base_weights":[-6.8847016E-3,-1.9983476E-1,4.0026775E-1,1.0636266E-2,-2.7942637E-1,2.101235E-1,6.134649E-1,-2.0588478E-1,7.619922E-2,-1.779912E-1,-4.0382126E-1,3.7217358E-1,1.5859847E-1,5.3647125E-1,7.523022E-1,-1.9633112E-2,4.0043085E-3,1.5599847E-2,3.2252315E-4,1.2856792E-2,-9.739836E-3,-2.2409499E-2,-4.26277E-3,1.1404992E-2,3.0260518E-2,1.0724869E-2,-4.8583033E-3,-1.6605457E-2,2.7306074E-2,4.2819895E-2,2.936691E-2],"categories":[],"categories_nodes":[],"categories_segments":[],"categories_sizes":[],"default_left":[0,0,0,0,0,0,0,0,0,0,0,0,0,0,0,0,0,0,0,0,0,0,0,0,0,0,0,0,0,0,0],"id":30,"left_children":[1,3,5,7,9,11,13,15,17,19,21,23,25,27,29,-1,-1,-1,-1,-1,-1,-1,-1,-1,-1,-1,-1,-1,-1,-1,-1],"loss_changes":[6.533054E2,9.4518616E1,1.0826361E2,2.2006859E1,5.1586395E1,1.1754456E1,1.30651245E1,1.927751E1,1.9566326E1,1.655378E1,2.5942139E1,1.1297089E1,1.5393787E1,7.004318E0,7.17276E0,0E0,0E0,0E0,0E0,0E0,0E0,0E0,0E0,0E0,0E0,0E0,0E0,0E0,0E0,0E0,0E0],"parents":[2147483647,0,0,1,1,2,2,3,3,4,4,5,5,6,6,7,7,8,8,9,9,10,10,11,11,12,12,13,13,14,14],"right_children":[2,4,6,8,10,12,14,16,18,20,22,24,26,28,30,-1,-1,-1,-1,-1,-1,-1,-1,-1,-1,-1,-1,-1,-1,-1,-1],"split_conditions":[1.6666667E-1,1.3790909E-2,1E0,-1.8333334E0,1.5E5,3.944576E-2,2E0,2.9E5,1.3E5,1.6E4,9.999449E-1,3.572216E-2,1.8E5,1.2604948E-2,8.008133E-1,-1.9633112E-2,4.0043085E-3,1.5599847E-2,3.2252315E-4,1.2856792E-2,-9.739836E-3,-2.2409499E-2,-4.26277E-3,1.1404992E-2,3.0260518E-2,1.0724869E-2,-4.8583033E-3,-1.6605457E-2,2.7306074E-2,4.2819895E-2,2.936691E-2],"split_indices":[2,3,2,2,0,5,2,0,0,0,5,5,0,5,3,0,0,0,0,0,0,0,0,0,0,0,0,0,0,0,0],"split_type":[0,0,0,0,0,0,0,0,0,0,0,0,0,0,0,0,0,0,0,0,0,0,0,0,0,0,0,0,0,0,0],"sum_hessian":[8.313979E3,5.641143E3,2.6728354E3,1.5481366E3,4.0930063E3,1.4138499E3,1.2589856E3,3.5932587E2,1.1888107E3,2.2559065E3,1.8370999E3,3.395901E2,1.0742598E3,8.1299493E2,4.4599066E2,2.1713466E2,1.4219121E2,2.7058347E2,9.1822723E2,8.335606E1,2.1725503E3,1.6121575E3,2.2494238E2,2.1107373E2,1.2851637E2,8.817165E2,1.9254321E2,8.56626E0,8.0442865E2,2.70873E2,1.7511766E2],"tree_param":{"num_deleted":"0","num_feature":"6","num_nodes":"31","size_leaf_vector":"1"}},{"base_weights":[-6.1054984E-3,-1.7812571E-1,3.662349E-1,-7.52392E-2,-3.2038918E-1,2.4687083E-1,6.0334647E-1,1.7703864E-1,-1.3048364E-1,-4.8211202E-1,-1.9984326E-1,1.651745E-1,3.5499796E-1,6.100978E-1,-1.2817798E0,3.7109014E-3,2.9305011E-2,-2.2779794E-2,-3.944201E-3,-2.7297636E-2,1.7468227E-2,-1.1751606E-2,6.7894505E-3,7.090135E-3,2.277298E-2,1.9706523E-2,9.100466E-3,3.3848282E-2,2.0713635E-2,-9.459572E-2,-4.332231E-3],"categories":[],"categories_nodes":[],"categories_segments":[],"categories_sizes":[],"default_left":[0,0,0,0,0,0,0,0,0,0,0,0,0,0,0,0,0,0,0,0,0,0,0,0,0,0,0,0,0,0,0],"id":31,"left_children":[1,3,5,7,9,11,13,15,17,19,21,23,25,27,29,-1,-1,-1,-1,-1,-1,-1,-1,-1,-1,-1,-1,-1,-1,-1,-1],"loss_changes":[5.309585E2,8.296947E1,7.399252E1,4.5900032E1,4.6289658E1,1.5348297E1,1.1936981E1,2.4846167E1,4.527486E1,5.4091904E1,1.6152641E1,6.688427E0,5.003807E0,1.1164246E1,2.3519783E0,0E0,0E0,0E0,0E0,0E0,0E0,0E0,0E0,0E0,0E0,0E0,0E0,0E0,0E0,0E0,0E0],"parents":[2147483647,0,0,1,1,2,2,3,3,4,4,5,5,6,6,7,7,8,8,9,9,10,10,11,11,12,12,13,13,14,14],"right_children":[2,4,6,8,10,12,14,16,18,20,22,24,26,28,30,-1,-1,-1,-1,-1,-1,-1,-1,-1,-1,-1,-1,-1,-1,-1,-1],"split_conditions":[1.6666667E-1,0E0,1.3333334E0,4.2468227E-2,5.553144E-1,6.666667E-1,6.6021895E-1,-6.666667E-1,-1.8333334E0,4.6130785E-1,2.9E5,4.6130785E-1,1.0774701E-1,8.875521E-1,2.1E5,3.7109014E-3,2.9305011E-2,-2.2779794E-2,-3.944201E-3,-2.7297636E-2,1.7468227E-2,-1.1751606E-2,6.7894505E-3,7.090135E-3,2.277298E-2,1.9706523E-2,9.100466E-3,3.3848282E-2,2.0713635E-2,-9.459572E-2,-4.332231E-3],"split_indices":[2,2,2,5,3,2,5,2,2,5,0,5,5,3,0,0,0,0,0,0,0,0,0,0,0,0,0,0,0,0,0],"split_type":[0,0,0,0,0,0,0,0,0,0,0,0,0,0,0,0,0,0,0,0,0,0,0,0,0,0,0,0,0,0,0],"sum_hessian":[8.287722E3,5.6691245E3,2.6185977E3,3.290748E3,2.3783762E3,1.743131E3,8.754667E2,5.907662E2,2.699982E3,1.0144304E3,1.3639459E3,9.943611E2,7.4876996E2,8.730164E2,2.450254E0,4.7304446E2,1.1772174E2,3.6875418E2,2.3312275E3,9.424152E2,7.2015205E1,1.2347863E3,1.2915964E2,9.216449E2,7.271615E1,6.0959314E2,1.3917686E2,6.4896094E2,2.240555E2,1.2361618E0,1.2140923E0],"tree_param":{"num_deleted":"0","num_feature":"6","num_nodes":"31","size_leaf_vector":"1"}},{"base_weights":[4.747337E-4,-1.6370347E-1,3.5930246E-1,4.9395666E-2,-2.582065E-1,2.365736E-1,6.0665375E-1,-1.1304288E-2,3.8643524E-1,-3.362633E-1,-1.5024824E-1,6.761152E-1,2.1643616E-1,6.835194E-1,4.1084138E-1,9.702505E-3,-4.811563E-3,2.1289017E-2,-1.1162007E-2,-1.1409686E-2,-3.1188233E-2,-9.761236E-3,7.560832E-3,-9.103024E-3,4.1098457E-2,6.6697635E-3,1.6270757E-2,3.6028665E-2,6.795965E-3,2.4357209E-2,6.746383E-3],"categories":[],"categories_nodes":[],"categories_segments":[],"categories_sizes":[],"default_left":[0,0,0,0,0,0,0,0,0,0,0,0,0,0,0,0,0,0,0,0,0,0,0,0,0,0,0,0,0,0,0],"id":32,"left_children":[1,3,5,7,9,11,13,15,17,19,21,23,25,27,29,-1,-1,-1,-1,-1,-1,-1,-1,-1,-1,-1,-1,-1,-1,-1,-1],"loss_changes":[4.8711404E2,1.1425749E2,7.865152E1,3.5677673E1,3.306909E1,1.5223549E1,1.2665314E1,2.580511E1,6.479149E0,7.07038E1,2.241566E1,9.612316E0,1.4996017E1,1.2404419E1,5.091648E0,0E0,0E0,0E0,0E0,0E0,0E0,0E0,0E0,0E0,0E0,0E0,0E0,0E0,0E0,0E0,0E0],"parents":[2147483647,0,0,1,1,2,2,3,3,4,4,5,5,6,6,7,7,8,8,9,9,10,10,11,11,12,12,13,13,14,14],"right_children":[2,4,6,8,10,12,14,16,18,20,22,24,26,28,30,-1,-1,-1,-1,-1,-1,-1,-1,-1,-1,-1,-1,-1,-1,-1,-1],"split_conditions":[1.6666667E-1,2.9751667E3,1.3333334E0,-5E-1,5.1514584E-1,1.9858334E3,8.6826795E-1,1.2604948E-2,1.9457271E0,3.2235166E4,1.4412184E-1,4.6866666E2,6.666667E-1,1.3598861E-1,4.887982E-2,9.702505E-3,-4.811563E-3,2.1289017E-2,-1.1162007E-2,-1.1409686E-2,-3.1188233E-2,-9.761236E-3,7.560832E-3,-9.103024E-3,4.1098457E-2,6.6697635E-3,1.6270757E-2,3.6028665E-2,6.795965E-3,2.4357209E-2,6.746383E-3],"split_indices":[2,1,2,2,3,1,3,5,5,1,5,1,2,5,5,0,0,0,0,0,0,0,0,0,0,0,0,0,0,0,0],"split_type":[0,0,0,0,0,0,0,0,0,0,0,0,0,0,0,0,0,0,0,0,0,0,0,0,0,0,0,0,0,0,0],"sum_hessian":[8.266548E3,5.6719463E3,2.5946013E3,1.7427095E3,3.9292368E3,1.735467E3,8.591343E2,1.4775695E3,2.6513998E2,2.2791987E3,1.6500383E3,7.4599594E1,1.6608674E3,6.151629E2,2.4397133E2,4.3191333E2,1.0456561E3,2.4934993E2,1.5790043E1,1.6578275E3,6.213711E2,1.43613E3,2.1390822E2,1.0800913E1,6.3798683E1,9.4387103E2,7.1699634E2,5.7587964E2,3.928325E1,1.9051863E2,5.345271E1],"tree_param":{"num_deleted":"0","num_feature":"6","num_nodes":"31","size_leaf_vector":"1"}},{"base_weights":[-5.1789503E-3,9.4087906E-2,-1.0766591E-1,1.106278E-1,-1.3188572E-1,2.786321E-1,-1.5551245E-1,1.0688769E-1,9.0293586E-1,-3.6872846E-1,5.9868574E-2,3.0426365E-1,-8.86028E-1,-2.1999769E-1,1.2276365E-2,1.1030555E-2,4.2058756E-3,8.099691E-2,-1.4190852E-3,-9.821709E-3,-3.9747715E-2,-1.40091255E-2,2.348462E-2,1.1930343E-2,4.027796E-2,1.3366523E-2,-6.2143054E-2,-5.971703E-3,-1.4915633E-2,-1.8863328E-3,1.4721724E-2],"categories":[],"categories_nodes":[],"categories_segments":[],"categories_sizes":[],"default_left":[0,0,0,0,0,0,0,0,0,0,0,0,0,0,0,0,0,0,0,0,0,0,0,0,0,0,0,0,0,0,0],"id":33,"left_children":[1,3,5,7,9,11,13,15,17,19,21,23,25,27,29,-1,-1,-1,-1,-1,-1,-1,-1,-1,-1,-1,-1,-1,-1,-1,-1],"loss_changes":[8.3391655E1,1.5577465E1,7.45856E1,1.1402496E1,1.2940166E1,1.3548721E1,3.8837296E1,9.985603E0,1.213065E1,9.199543E0,2.2156607E1,1.4157967E1,4.3797297E0,2.0384216E1,1.4083126E1,0E0,0E0,0E0,0E0,0E0,0E0,0E0,0E0,0E0,0E0,0E0,0E0,0E0,0E0,0E0,0E0],"parents":[2147483647,0,0,1,1,2,2,3,3,4,4,5,5,6,6,7,7,8,8,9,9,10,10,11,11,12,12,13,13,14,14],"right_children":[2,4,6,8,10,12,14,16,18,20,22,24,26,28,30,-1,-1,-1,-1,-1,-1,-1,-1,-1,-1,-1,-1,-1,-1,-1,-1],"split_conditions":[1.21E4,1.0167472E0,3.5517886E-2,1.0091108E0,1.2999536E0,1.0799E0,7.1416E-1,2.5366392E-2,3.894E3,7.272E3,2.32E-3,5.0246E4,2.5366392E-2,1.6302833E4,9.85485E-1,1.1030555E-2,4.2058756E-3,8.099691E-2,-1.4190852E-3,-9.821709E-3,-3.9747715E-2,-1.40091255E-2,2.348462E-2,1.1930343E-2,4.027796E-2,1.3366523E-2,-6.2143054E-2,-5.971703E-3,-1.4915633E-2,-1.8863328E-3,1.4721724E-2],"split_indices":[4,5,5,5,5,3,3,5,4,4,3,4,5,1,3,0,0,0,0,0,0,0,0,0,0,0,0,0,0,0,0],"split_type":[0,0,0,0,0,0,0,0,0,0,0,0,0,0,0,0,0,0,0,0,0,0,0,0,0,0,0,0,0,0,0],"sum_hessian":[8.194905E3,4.162892E3,4.0320134E3,3.8794502E3,2.8344168E2,4.4383167E2,3.5881816E3,3.8623528E3,1.7097418E1,1.2639889E2,1.570428E2,4.3499713E2,8.834559E0,2.5917856E3,9.9639594E2,6.4287744E2,3.2194753E3,9.242445E0,7.854974E0,9.105313E1,3.5345753E1,8.6000374E1,7.1042435E1,3.8592664E2,4.9070465E1,2.1467247E0,6.6878347E0,1.1358171E3,1.4559686E3,8.471359E2,1.4926003E2],"tree_param":{"num_deleted":"0","num_feature":"6","num_nodes":"31","size_leaf_vector":"1"}},{"base_weights":[-4.8877276E-3,-1.18624754E-1,4.6307588E-1,-1.7990401E-2,-2.2170934E-1,3.8136888E-1,6.901763E-1,-1.3229086E-1,1.04297884E-1,-3.0698055E-1,1.050469E-1,3.3529437E-1,5.01122E-1,-6.1568774E-2,6.982142E-1,1.2842574E-3,-1.360576E-2,1.2848789E-2,9.85788E-4,-1.6904822E-2,1.2123792E-2,2.75383E-2,4.2178878E-3,1.7007349E-2,-3.0988945E-2,3.779065E-2,2.0801868E-2,2.4582272E-2,3.918526E-2],"categories":[],"categories_nodes":[],"categories_segments":[],"categories_sizes":[],"default_left":[0,0,0,0,0,0,0,0,0,0,0,0,0,0,0,0,0,0,0,0,0,0,0,0,0,0,0,0,0],"id":34,"left_children":[1,3,5,7,9,11,13,15,17,19,21,23,25,-1,27,-1,-1,-1,-1,-1,-1,-1,-1,-1,-1,-1,-1,-1,-1],"loss_changes":[4.3694684E2,6.850774E1,2.9521606E1,4.6740116E1,9.093028E1,6.3575287E0,7.4003906E0,3.8184204E1,2.0858454E1,4.4318787E1,6.186396E0,4.1831284E0,6.7626877E0,0E0,7.073227E0,0E0,0E0,0E0,0E0,0E0,0E0,0E0,0E0,0E0,0E0,0E0,0E0,0E0,0E0],"parents":[2147483647,0,0,1,1,2,2,3,3,4,4,5,5,6,6,7,7,8,8,9,9,10,10,11,11,12,12,14,14],"right_children":[2,4,6,8,10,12,14,16,18,20,22,24,26,-1,28,-1,-1,-1,-1,-1,-1,-1,-1,-1,-1,-1,-1,-1,-1],"split_conditions":[6.666667E-1,1.6302833E4,2E0,-8.333333E-1,3.3333334E-1,6.1536668E4,2E2,7.691667E2,3.1056667E3,2.2851783E5,1.7621E4,6.0363E4,7.6946336E4,-6.1568774E-2,4E4,1.2842574E-3,-1.360576E-2,1.2848789E-2,9.85788E-4,-1.6904822E-2,1.2123792E-2,2.75383E-2,4.2178878E-3,1.7007349E-2,-3.0988945E-2,3.779065E-2,2.0801868E-2,2.4582272E-2,3.918526E-2],"split_indices":[2,1,2,2,2,1,1,1,1,1,1,1,1,0,0,0,0,0,0,0,0,0,0,0,0,0,0,0,0],"split_type":[0,0,0,0,0,0,0,0,0,0,0,0,0,0,0,0,0,0,0,0,0,0,0,0,0,0,0,0,0],"sum_hessian":[8.207431E3,6.603273E3,1.6041575E3,3.3419412E3,3.2613318E3,1.1816857E3,4.2247174E2,1.7273445E3,1.6145968E3,2.5864302E3,6.7490155E2,8.561034E2,3.255823E2,1.1258576E0,4.213459E2,8.1141254E2,9.1593195E2,5.7486993E2,1.0397269E3,2.448174E3,1.3825609E2,2.8801075E1,6.461005E2,8.5241626E2,3.687163E0,7.95564E1,2.4602591E2,1.25311386E2,2.960345E2],"tree_param":{"num_deleted":"0","num_feature":"6","num_nodes":"29","size_leaf_vector":"1"}},{"base_weights":[7.294116E-4,-1.5268977E-1,3.3376995E-1,-3.2207314E-2,-2.6023084E-1,1.753612E-1,5.1965547E-1,-2.5319323E-1,2.5999513E-2,-2.8546658E-1,1.2824458E-1,8.9931244E-1,1.6547085E-1,4.4021085E-1,6.660598E-1,-4.7102727E-2,-8.670191E-3,1.4690218E-2,-1.2671218E-3,-8.950157E-3,-2.1723116E-2,1.1600108E-2,-1.6429106E-2,2.8502068E-2,6.4105034E-2,5.873145E-3,1.3933546E-2,-2.2750175E-2,2.2436323E-2,2.5408665E-2,4.0371936E-2],"categories":[],"categories_nodes":[],"categories_segments":[],"categories_sizes":[],"default_left":[0,0,0,0,0,0,0,0,0,0,0,0,0,0,0,0,0,0,0,0,0,0,0,0,0,0,0,0,0,0,0],"id":35,"left_children":[1,3,5,7,9,11,13,15,17,19,21,23,25,27,29,-1,-1,-1,-1,-1,-1,-1,-1,-1,-1,-1,-1,-1,-1,-1,-1],"loss_changes":[4.2042484E2,7.298108E1,7.632214E1,3.419521E1,2.9215302E1,9.893845E0,1.3587982E1,3.0298962E1,2.8946318E1,4.4260025E1,8.714436E0,1.6233196E0,7.4935265E0,6.1243896E0,8.917145E0,0E0,0E0,0E0,0E0,0E0,0E0,0E0,0E0,0E0,0E0,0E0,0E0,0E0,0E0,0E0,0E0],"parents":[2147483647,0,0,1,1,2,2,3,3,4,4,5,5,6,6,7,7,8,8,9,9,10,10,11,11,12,12,13,13,14,14],"right_children":[2,4,6,8,10,12,14,16,18,20,22,24,26,28,30,-1,-1,-1,-1,-1,-1,-1,-1,-1,-1,-1,-1,-1,-1,-1,-1],"split_conditions":[1.6666667E-1,1.0259E4,1E0,-1.5E0,2.0749883E5,1.116E3,2E0,9E4,8E2,1.5E5,4.8E5,2.1E5,5.91605E4,6.15E2,7E4,-4.7102727E-2,-8.670191E-3,1.4690218E-2,-1.2671218E-3,-8.950157E-3,-2.1723116E-2,1.1600108E-2,-1.6429106E-2,2.8502068E-2,6.4105034E-2,5.873145E-3,1.3933546E-2,-2.2750175E-2,2.2436323E-2,2.5408665E-2,4.0371936E-2],"split_indices":[2,1,2,2,1,4,2,0,4,0,0,0,1,4,0,0,0,0,0,0,0,0,0,0,0,0,0,0,0,0,0],"split_type":[0,0,0,0,0,0,0,0,0,0,0,0,0,0,0,0,0,0,0,0,0,0,0,0,0,0,0,0,0,0,0],"sum_hessian":[8.22633E3,5.632289E3,2.5940413E3,2.656928E3,2.975361E3,1.4015801E3,1.1924612E3,5.5322485E2,2.1037031E3,2.7941174E3,1.8124353E2,1.7677794E1,1.3839023E3,7.755985E2,4.1686264E2,5.6305435E1,4.969194E2,3.376683E2,1.7660348E3,1.6309438E3,1.1631737E3,1.4809853E2,3.3145E1,1.0841345E1,6.8364487E0,9.732052E2,4.1069708E2,6.814185E0,7.687843E2,1.9910455E2,2.1775807E2],"tree_param":{"num_deleted":"0","num_feature":"6","num_nodes":"31","size_leaf_vector":"1"}},{"base_weights":[-2.9340104E-4,-1.534697E-1,3.3035585E-1,7.71759E-2,-2.122779E-1,1.7779124E-1,5.142732E-1,3.5586484E-2,3.087289E-1,4.639866E-2,-2.3642673E-1,3.2947147E-1,1.2997024E-1,4.384021E-1,6.570119E-1,-1.152082E-2,5.6660958E-3,2.5492484E-2,-7.86747E-3,-2.1695949E-3,3.953674E-2,-1.6608967E-2,-8.160532E-3,7.390361E-3,3.0714316E-2,9.05371E-3,-7.59295E-3,2.5210232E-2,1.4405242E-2,3.5379346E-2,1.6284054E-2],"categories":[],"categories_nodes":[],"categories_segments":[],"categories_sizes":[],"default_left":[0,0,0,0,0,0,0,0,0,0,0,0,0,0,0,0,0,0,0,0,0,0,0,0,0,0,0,0,0,0,0],"id":36,"left_children":[1,3,5,7,9,11,13,15,17,19,21,23,25,27,29,-1,-1,-1,-1,-1,-1,-1,-1,-1,-1,-1,-1,-1,-1,-1,-1],"loss_changes":[4.1416855E2,7.581824E1,7.2552185E1,1.0930315E1,2.7829956E1,1.0232567E1,1.2418732E1,1.9965496E1,1.628407E1,2.5503763E1,2.8502075E1,1.744485E1,1.5563524E1,7.461212E0,6.559677E0,0E0,0E0,0E0,0E0,0E0,0E0,0E0,0E0,0E0,0E0,0E0,0E0,0E0,0E0,0E0,0E0],"parents":[2147483647,0,0,1,1,2,2,3,3,4,4,5,5,6,6,7,7,8,8,9,9,10,10,11,11,12,12,13,13,14,14],"right_children":[2,4,6,8,10,12,14,16,18,20,22,24,26,28,30,-1,-1,-1,-1,-1,-1,-1,-1,-1,-1,-1,-1,-1,-1,-1,-1],"split_conditions":[1.6666667E-1,3.763E3,1E0,3.1E5,3.5517886E-2,3.944576E-2,2E0,-1.5E0,1.116E3,4.8312E4,1.3991679E-1,3.572216E-2,1.9E5,1.5E0,3E0,-1.152082E-2,5.6660958E-3,2.5492484E-2,-7.86747E-3,-2.1695949E-3,3.953674E-2,-1.6608967E-2,-8.160532E-3,7.390361E-3,3.0714316E-2,9.05371E-3,-7.59295E-3,2.5210232E-2,1.4405242E-2,3.5379346E-2,1.6284054E-2],"split_indices":[2,4,2,0,5,5,2,2,4,4,5,5,0,2,2,0,0,0,0,0,0,0,0,0,0,0,0,0,0,0,0],"split_type":[0,0,0,0,0,0,0,0,0,0,0,0,0,0,0,0,0,0,0,0,0,0,0,0,0,0,0,0,0,0,0],"sum_hessian":[8.175451E3,5.587518E3,2.587933E3,1.1351503E3,4.4523677E3,1.4156108E3,1.1723223E3,9.6328723E2,1.7186308E2,3.800832E2,4.0722847E3,3.379141E2,1.0776968E3,7.6811237E2,4.0420993E2,2.1740047E2,7.458868E2,1.19991E2,5.1872086E1,3.4000903E2,4.007417E1,1.7630354E3,2.3092493E3,2.0724524E2,1.3066885E2,9.125771E2,1.6511964E2,5.3258386E2,2.3552849E2,3.4969608E2,5.451386E1],"tree_param":{"num_deleted":"0","num_feature":"6","num_nodes":"31","size_leaf_vector":"1"}},{"base_weights":[-6.087893E-5,-1.4543971E-1,3.185738E-1,8.9315996E-2,-1.9711603E-1,2.0722719E-1,5.5192816E-1,2.674797E-2,4.106845E-1,-1.05160415E-1,-2.5001436E-1,1.2845154E-1,3.1525955E-1,7.0457923E-1,4.037517E-1,-6.3698287E-3,5.0642053E-3,1.8220719E-2,7.0314325E-2,-2.1461485E-2,-8.622502E-4,-1.8235719E-2,-5.2413037E-3,3.941906E-3,1.6484946E-2,3.8439564E-2,1.4707217E-2,-3.0295644E-2,3.5668265E-2,1.4797337E-2,2.5604859E-2],"categories":[],"categories_nodes":[],"categories_segments":[],"categories_sizes":[],"default_left":[0,0,0,0,0,0,0,0,0,0,0,0,0,0,0,0,0,0,0,0,0,0,0,0,0,0,0,0,0,0,0],"id":37,"left_children":[1,3,5,7,9,11,13,15,17,19,21,23,25,27,29,-1,-1,-1,-1,-1,-1,-1,-1,-1,-1,-1,-1,-1,-1,-1,-1],"loss_changes":[3.7813782E2,6.802027E1,6.6339355E1,2.0337845E1,2.2322952E1,1.4707993E1,1.8388962E1,9.757652E0,7.081688E0,4.7844955E1,4.852159E1,9.997519E0,6.765709E0,5.0988007E0,4.768814E0,0E0,0E0,0E0,0E0,0E0,0E0,0E0,0E0,0E0,0E0,0E0,0E0,0E0,0E0,0E0,0E0],"parents":[2147483647,0,0,1,1,2,2,3,3,4,4,5,5,6,6,7,7,8,8,9,9,10,10,11,11,12,12,13,13,14,14],"right_children":[2,4,6,8,10,12,14,16,18,20,22,24,26,28,30,-1,-1,-1,-1,-1,-1,-1,-1,-1,-1,-1,-1,-1,-1,-1,-1],"split_conditions":[1.6666667E-1,7.691667E2,1.3333334E0,4.3125E-3,1.0541667E4,6.666667E-1,6.6527915E-1,-1.5E0,1.116E4,-1.1666666E0,6.1266667E-1,3.1E4,2.7632795E-2,2.32E-3,2E0,-6.3698287E-3,5.0642053E-3,1.8220719E-2,7.0314325E-2,-2.1461485E-2,-8.622502E-4,-1.8235719E-2,-5.2413037E-3,3.941906E-3,1.6484946E-2,3.8439564E-2,1.4707217E-2,-3.0295644E-2,3.5668265E-2,1.4797337E-2,2.5604859E-2],"split_indices":[2,1,2,3,1,2,3,2,4,2,3,4,3,3,2,0,0,0,0,0,0,0,0,0,0,0,0,0,0,0,0],"split_type":[0,0,0,0,0,0,0,0,0,0,0,0,0,0,0,0,0,0,0,0,0,0,0,0,0,0,0,0,0,0,0],"sum_hessian":[8.1611143E3,5.6045503E3,2.5565637E3,1.0110074E3,4.593543E3,1.732011E3,8.245527E2,8.4715576E2,1.6385161E2,1.6785791E3,2.9149639E3,1.0028998E3,7.2911115E2,4.0429437E2,4.202583E2,2.7589062E2,5.7126514E2,1.5788022E2,5.9713836E0,3.5737167E2,1.3212074E3,1.6276189E3,1.287345E3,8.056701E2,1.9722972E2,3.086012E1,6.9825104E2,2.239866E0,4.020545E2,2.12525E2,2.0773332E2],"tree_param":{"num_deleted":"0","num_feature":"6","num_nodes":"31","size_leaf_vector":"1"}},{"base_weights":[-2.3912361E-3,8.5540965E-2,-1.15987316E-1,1.209974E-1,-2.0347632E-2,1.940151E-1,-1.5325363E-1,1.4119293E-1,-1.07227616E-1,-6.0275562E-2,3.0812293E-1,-2.1576965E-1,2.9510286E-1,-1.9187133E-1,2.1755143E-1,-6.381365E-3,7.8861965E-3,-2.0158203E-2,-1.6039395E-3,-2.1873978E-3,-3.8487468E-2,1.9727977E-2,-2.5216525E-2,-1.7179465E-2,1.812803E-2,1.9242577E-2,3.5590335E-4,-8.027374E-3,-1.80396E-2,3.4464386E-3,3.17446E-2],"categories":[],"categories_nodes":[],"categories_segments":[],"categories_sizes":[],"default_left":[0,0,0,0,0,0,0,0,0,0,0,0,0,0,0,0,0,0,0,0,0,0,0,0,0,0,0,0,0,0,0],"id":38,"left_children":[1,3,5,7,9,11,13,15,17,19,21,23,25,27,29,-1,-1,-1,-1,-1,-1,-1,-1,-1,-1,-1,-1,-1,-1,-1,-1],"loss_changes":[8.075219E1,1.7111122E1,4.0780476E1,1.5750519E1,1.5021803E1,1.5762424E1,4.5140266E1,1.39599E1,6.172007E0,1.1936279E1,8.917439E0,5.710595E0,7.865082E0,1.5037407E1,1.8410847E1,0E0,0E0,0E0,0E0,0E0,0E0,0E0,0E0,0E0,0E0,0E0,0E0,0E0,0E0,0E0,0E0],"parents":[2147483647,0,0,1,1,2,2,3,3,4,4,5,5,6,6,7,7,8,8,9,9,10,10,11,11,12,12,13,13,14,14],"right_children":[2,4,6,8,10,12,14,16,18,20,22,24,26,28,30,-1,-1,-1,-1,-1,-1,-1,-1,-1,-1,-1,-1,-1,-1,-1,-1],"split_conditions":[1.5E5,1.6827E4,8E2,9.4267964E-1,9.752611E-1,1.9E5,8.3233887E-1,3.3333334E-3,9.5883614E-1,9.5883614E-1,1.3908167E5,4.105E2,5.977778E-4,6.9555E4,3E5,-6.381365E-3,7.8861965E-3,-2.0158203E-2,-1.6039395E-3,-2.1873978E-3,-3.8487468E-2,1.9727977E-2,-2.5216525E-2,-1.7179465E-2,1.812803E-2,1.9242577E-2,3.5590335E-4,-8.027374E-3,-1.80396E-2,3.4464386E-3,3.17446E-2],"split_indices":[0,4,4,3,3,0,3,3,3,3,1,1,3,4,0,0,0,0,0,0,0,0,0,0,0,0,0,0,0,0,0],"split_type":[0,0,0,0,0,0,0,0,0,0,0,0,0,0,0,0,0,0,0,0,0,0,0,0,0,0,0,0,0,0,0],"sum_hessian":[8.0823174E3,4.5559243E3,3.526393E3,3.412963E3,1.1429617E3,3.7797513E2,3.148418E3,3.135854E3,2.7710886E2,1.01981274E3,1.2314898E2,7.4566505E1,3.0340863E2,2.851889E3,2.96529E2,1.8127742E2,2.9545767E3,5.5233643E1,2.2187521E2,9.976339E2,2.2178808E1,1.11771965E2,1.1377015E1,6.1401707E1,1.3164799E1,2.3106294E2,7.2345695E1,2.407419E3,4.4446994E2,2.1951929E2,7.70097E1],"tree_param":{"num_deleted":"0","num_feature":"6","num_nodes":"31","size_leaf_vector":"1"}},{"base_weights":[-1.1232207E-2,-1.4090355E-1,2.762933E-1,1.0812282E-1,-1.8367429E-1,1.737082E-1,4.9592212E-1,6.422978E-2,5.584126E-1,-2.9550767E-1,-1.0874414E-1,3.2145151E-1,1.2465293E-1,5.739583E-1,3.076811E-1,7.867325E-3,-8.119204E-3,1.0154146E-2,4.0119108E-2,-2.1621002E-2,-9.160922E-3,-1.6958904E-2,-3.7719812E-3,2.640873E-3,2.3007357E-2,1.123953E-2,-4.0862264E-4,-5.886283E-2,2.9097527E-2,-4.231982E-2,1.7525585E-2],"categories":[],"categories_nodes":[],"categories_segments":[],"categories_sizes":[],"default_left":[0,0,0,0,0,0,0,0,0,0,0,0,0,0,0,0,0,0,0,0,0,0,0,0,0,0,0,0,0,0,0],"id":39,"left_children":[1,3,5,7,9,11,13,15,17,19,21,23,25,27,29,-1,-1,-1,-1,-1,-1,-1,-1,-1,-1,-1,-1,-1,-1,-1,-1],"loss_changes":[2.994054E2,5.8966927E1,5.6150314E1,1.6009897E1,3.9549744E1,1.2301651E1,1.1488831E1,1.5658976E1,6.0767593E0,2.9046768E1,2.1693432E1,1.5767117E1,1.7027386E1,8.526337E0,1.1906998E1,0E0,0E0,0E0,0E0,0E0,0E0,0E0,0E0,0E0,0E0,0E0,0E0,0E0,0E0,0E0,0E0],"parents":[2147483647,0,0,1,1,2,2,3,3,4,4,5,5,6,6,7,7,8,8,9,9,10,10,11,11,12,12,13,13,14,14],"right_children":[2,4,6,8,10,12,14,16,18,20,22,24,26,28,30,-1,-1,-1,-1,-1,-1,-1,-1,-1,-1,-1,-1,-1,-1,-1,-1],"split_conditions":[1.6666667E-1,3.472421E-2,1.3333334E0,3.1942E4,1.3991679E-1,3.944576E-2,8.6826795E-1,2.5366392E-2,3.221184E-2,5.9440833E-1,-1.8333334E0,9.43E3,1.24E4,2.32E-3,1.5E3,7.867325E-3,-8.119204E-3,1.0154146E-2,4.0119108E-2,-2.1621002E-2,-9.160922E-3,-1.6958904E-2,-3.7719812E-3,2.640873E-3,2.3007357E-2,1.123953E-2,-4.0862264E-4,-5.886283E-2,2.9097527E-2,-4.231982E-2,1.7525585E-2],"split_indices":[2,5,2,4,5,5,3,5,5,3,2,4,4,3,4,0,0,0,0,0,0,0,0,0,0,0,0,0,0,0,0],"split_type":[0,0,0,0,0,0,0,0,0,0,0,0,0,0,0,0,0,0,0,0,0,0,0,0,0,0,0,0,0,0,0],"sum_hessian":[8.028393E3,5.5333936E3,2.4949993E3,8.108442E2,4.7225493E3,1.7018728E3,7.931266E2,7.3986664E2,7.097756E1,1.8935216E3,2.8290278E3,4.228356E2,1.2790372E3,5.5924146E2,2.3388509E2,5.246083E2,2.1525838E2,2.9640312E1,4.133725E1,8.519286E2,1.041593E3,3.560858E2,2.472942E3,1.4444556E2,2.7839005E2,7.2885657E2,5.5018066E2,1.8760384E0,5.573654E2,7.69806E0,2.2618703E2],"tree_param":{"num_deleted":"0","num_feature":"6","num_nodes":"31","size_leaf_vector":"1"}},{"base_weights":[6.0634543E-3,-8.838492E-2,4.1493335E-1,-1.23872094E-1,1.1323443E-1,3.4803402E-1,6.104232E-1,8.945823E-3,-1.7473839E-1,1.0073897E0,1.00034155E-1,3.9186668E-1,1.6724561E-1,7.315991E-1,4.0859047E-1,-2.4620555E-3,9.1815945E-3,-1.2313395E-3,-1.24459E-2,2.1933952E-2,6.1323214E-2,-6.259399E-2,5.5212076E-3,1.5635602E-2,2.2512443E-2,1.3216952E-2,-3.9927434E-2,-3.904855E-2,3.7088137E-2,-5.645294E-3,2.3562415E-2],"categories":[],"categories_nodes":[],"categories_segments":[],"categories_sizes":[],"default_left":[0,0,0,0,0,0,0,0,0,0,0,0,0,0,0,0,0,0,0,0,0,0,0,0,0,0,0,0,0,0,0],"id":40,"left_children":[1,3,5,7,9,11,13,15,17,19,21,23,25,27,29,-1,-1,-1,-1,-1,-1,-1,-1,-1,-1,-1,-1,-1,-1,-1,-1],"loss_changes":[3.1157355E2,4.690947E1,1.9588135E1,3.7658035E1,1.1483854E1,8.891678E0,9.109589E0,1.5707693E1,4.4872704E1,1.2272358E0,1.3739661E1,4.0599365E0,2.1058311E1,4.2551956E0,4.842867E0,0E0,0E0,0E0,0E0,0E0,0E0,0E0,0E0,0E0,0E0,0E0,0E0,0E0,0E0,0E0,0E0],"parents":[2147483647,0,0,1,1,2,2,3,3,4,4,5,5,6,6,7,7,8,8,9,9,10,10,11,11,12,12,13,13,14,14],"right_children":[2,4,6,8,10,12,14,16,18,20,22,24,26,28,30,-1,-1,-1,-1,-1,-1,-1,-1,-1,-1,-1,-1,-1,-1,-1,-1],"split_conditions":[6.666667E-1,1.6666667E-1,2E0,1.3790909E-2,1.116E3,8.995975E-1,8.1695E-1,-8.333333E-1,7E4,7E4,1.642E3,4.9616E-1,1.8333334E0,2.32E-3,8.4708E-1,-2.4620555E-3,9.1815945E-3,-1.2313395E-3,-1.24459E-2,2.1933952E-2,6.1323214E-2,-6.259399E-2,5.5212076E-3,1.5635602E-2,2.2512443E-2,1.3216952E-2,-3.9927434E-2,-3.904855E-2,3.7088137E-2,-5.645294E-3,2.3562415E-2],"split_indices":[2,2,2,3,4,3,3,2,0,0,4,3,2,3,3,0,0,0,0,0,0,0,0,0,0,0,0,0,0,0,0],"split_type":[0,0,0,0,0,0,0,0,0,0,0,0,0,0,0,0,0,0,0,0,0,0,0,0,0,0,0,0,0,0,0],"sum_hessian":[8.06633E3,6.553309E3,1.5130212E3,5.5728184E3,9.8049054E2,1.1293293E3,3.836919E2,1.543467E3,4.0293513E3,1.31685505E1,9.67322E2,9.080118E2,2.213176E2,2.3811072E2,1.4558116E2,1.1583464E3,3.8512048E2,1.3330638E3,2.6962876E3,4.496971E0,8.671579E0,6.466241E0,9.608558E2,3.8813467E2,5.1987714E2,2.0176047E2,1.955712E1,1.0830926E0,2.3702762E2,1.5529378E1,1.3005179E2],"tree_param":{"num_deleted":"0","num_feature":"6","num_nodes":"31","size_leaf_vector":"1"}},{"base_weights":[7.6677087E-3,-7.838598E-2,3.8562196E-1,1.1171194E-1,-1.20713E-1,2.4431181E-1,5.119665E-1,3.1376608E-2,3.4456697E-1,-1.5840669E-1,6.423067E-2,4.2099953E-1,1.9509594E-1,5.973647E-1,3.0429468E-1,9.065709E-3,-4.9712225E-3,3.6742456E-2,1.0866696E-2,-1.19045405E-2,-4.311927E-3,-2.0825885E-4,1.2570321E-2,9.207522E-3,2.8100833E-2,3.938865E-2,8.736275E-3,3.1281587E-2,1.2943545E-2,-2.6390923E-2,1.6835006E-2],"categories":[],"categories_nodes":[],"categories_segments":[],"categories_sizes":[],"default_left":[0,0,0,0,0,0,0,0,0,0,0,0,0,0,0,0,0,0,0,0,0,0,0,0,0,0,0,0,0,0,0],"id":41,"left_children":[1,3,5,7,9,11,13,15,17,19,21,23,25,27,29,-1,-1,-1,-1,-1,-1,-1,-1,-1,-1,-1,-1,-1,-1,-1,-1],"loss_changes":[2.62866E2,5.2984642E1,2.6635696E1,2.2425922E1,3.754946E1,6.087143E0,1.3836426E1,1.752866E1,1.5112537E1,2.570501E1,1.1681681E1,5.0300236E0,6.5840874E0,5.1873474E0,6.4434223E0,0E0,0E0,0E0,0E0,0E0,0E0,0E0,0E0,0E0,0E0,0E0,0E0,0E0,0E0,0E0,0E0],"parents":[2147483647,0,0,1,1,2,2,3,3,4,4,5,5,6,6,7,7,8,8,9,9,10,10,11,11,12,12,13,13,14,14],"right_children":[2,4,6,8,10,12,14,16,18,20,22,24,26,28,30,-1,-1,-1,-1,-1,-1,-1,-1,-1,-1,-1,-1,-1,-1,-1,-1],"split_conditions":[6.666667E-1,3.619E3,1.3333334E0,-6.666667E-1,1.6666667E-1,3.6625225E-2,8.6826795E-1,5.977778E-4,3.137402E-2,1.3991679E-1,2.6E4,9.619E3,1.3242963E-2,1.3598861E-1,1.283E3,9.065709E-3,-4.9712225E-3,3.6742456E-2,1.0866696E-2,-1.19045405E-2,-4.311927E-3,-2.0825885E-4,1.2570321E-2,9.207522E-3,2.8100833E-2,3.938865E-2,8.736275E-3,3.1281587E-2,1.2943545E-2,-2.6390923E-2,1.6835006E-2],"split_indices":[2,4,2,2,2,5,3,3,5,5,4,4,3,5,4,0,0,0,0,0,0,0,0,0,0,0,0,0,0,0,0],"split_type":[0,0,0,0,0,0,0,0,0,0,0,0,0,0,0,0,0,0,0,0,0,0,0,0,0,0,0,0,0,0,0],"sum_hessian":[8.0801978E3,6.582311E3,1.4978866E3,1.1984094E3,5.383902E3,7.084519E2,7.894347E2,8.9185345E2,3.0655603E2,4.4724976E3,9.1140393E2,1.5269914E2,5.5575275E2,5.580702E2,2.313645E2,4.1535025E2,4.765032E2,7.419385E1,2.3236218E2,2.1244727E3,2.3480251E3,6.682109E2,2.4319305E2,5.7846832E1,9.485232E1,1.721486E1,5.3853784E2,5.142757E2,4.37945E1,8.099367E0,2.2326514E2],"tree_param":{"num_deleted":"0","num_feature":"6","num_nodes":"31","size_leaf_vector":"1"}},{"base_weights":[9.311258E-3,-1.0222035E-1,2.6323843E-1,2.1780783E-2,-1.615348E-1,1.3593097E-1,4.2301118E-1,-7.1964025E-2,9.039683E-2,-2.0238928E-1,-4.8347082E-2,1.08579874E-1,5.06484E-1,4.4589835E-1,1.4310724E-1,4.483283E-3,-1.1202465E-2,3.1867657E-2,2.8580201E-3,-1.7856797E-2,-5.544473E-3,-5.473652E-3,1.1901969E-2,1.4135248E-2,2.2079533E-3,-3.151576E-2,2.8781313E-2,2.4931028E-2,1.3562711E-2,2.7897058E-3,3.998108E-2],"categories":[],"categories_nodes":[],"categories_segments":[],"categories_sizes":[],"default_left":[0,0,0,0,0,0,0,0,0,0,0,0,0,0,0,0,0,0,0,0,0,0,0,0,0,0,0,0,0,0,0],"id":42,"left_children":[1,3,5,7,9,11,13,15,17,19,21,23,25,27,29,-1,-1,-1,-1,-1,-1,-1,-1,-1,-1,-1,-1,-1,-1,-1,-1],"loss_changes":[2.2660919E2,4.0894936E1,4.961145E1,1.1583415E1,1.7381226E1,1.3733711E1,6.87027E0,1.8730791E1,1.8862526E1,3.9083908E1,1.750985E1,1.421388E1,7.691969E0,9.073425E0,4.729679E0,0E0,0E0,0E0,0E0,0E0,0E0,0E0,0E0,0E0,0E0,0E0,0E0,0E0,0E0,0E0,0E0],"parents":[2147483647,0,0,1,1,2,2,3,3,4,4,5,5,6,6,7,7,8,8,9,9,10,10,11,11,12,12,13,13,14,14],"right_children":[2,4,6,8,10,12,14,16,18,20,22,24,26,28,30,-1,-1,-1,-1,-1,-1,-1,-1,-1,-1,-1,-1,-1,-1,-1,-1],"split_conditions":[1.6666667E-1,7E3,1E0,-1E0,6.821E-1,4.6130785E-1,1.3233718E-1,3.2824074E-4,2.020283E-2,1.9894281E-1,9.480423E-2,3.9854754E-2,1.836E3,9.0547204E-1,7.8E4,4.483283E-3,-1.1202465E-2,3.1867657E-2,2.8580201E-3,-1.7856797E-2,-5.544473E-3,-5.473652E-3,1.1901969E-2,1.4135248E-2,2.2079533E-3,-3.151576E-2,2.8781313E-2,2.4931028E-2,1.3562711E-2,2.7897058E-3,3.998108E-2],"split_indices":[2,4,2,2,3,5,5,3,5,5,5,5,4,3,4,0,0,0,0,0,0,0,0,0,0,0,0,0,0,0,0],"split_type":[0,0,0,0,0,0,0,0,0,0,0,0,0,0,0,0,0,0,0,0,0,0,0,0,0,0,0,0,0,0,0],"sum_hessian":[7.999532E3,5.5586304E3,2.4409019E3,1.7987812E3,3.7598489E3,1.3594993E3,1.0814025E3,7.6017035E2,1.038611E3,2.7620972E3,9.977517E2,1.2672543E3,9.224501E1,9.9911395E2,8.2288574E1,3.687205E2,3.914499E2,5.845575E1,9.8015515E2,1.0252563E3,1.7368408E3,8.2276056E2,1.749912E2,3.4131485E2,9.259394E2,4.8234997E0,8.742151E1,7.660124E2,2.3310158E2,7.3586876E1,8.7017E0],"tree_param":{"num_deleted":"0","num_feature":"6","num_nodes":"31","size_leaf_vector":"1"}},{"base_weights":[5.2925292E-3,-1.0257637E-1,2.5069848E-1,1.0413757E-1,-1.4849E-1,1.3974918E-1,3.949641E-1,1.078125E0,8.742776E-2,-1.6274278E-1,1.9244872E-1,4.2777973E-1,1.15841545E-1,3.1583086E-1,5.4982156E-1,2.047603E-2,6.971967E-2,-1.9626555E-4,1.216934E-2,-6.0833707E-3,-1.8423181E-2,2.3277787E-2,-8.048233E-4,2.4511186E-2,-4.0008012E-2,1.241682E-2,3.5970255E-3,1.3647646E-2,3.20031E-2,1.71107E-2,3.1591326E-2],"categories":[],"categories_nodes":[],"categories_segments":[],"categories_sizes":[],"default_left":[0,0,0,0,0,0,0,0,0,0,0,0,0,0,0,0,0,0,0,0,0,0,0,0,0,0,0,0,0,0,0],"id":43,"left_children":[1,3,5,7,9,11,13,15,17,19,21,23,25,27,29,-1,-1,-1,-1,-1,-1,-1,-1,-1,-1,-1,-1,-1,-1,-1,-1],"loss_changes":[2.1145776E2,5.2681297E1,3.8985016E1,1.632889E1,2.2097206E1,9.455271E0,1.281337E1,3.0093498E0,1.4150862E1,3.679123E1,1.0411638E1,8.475351E0,7.403429E0,9.608772E0,5.8626785E0,0E0,0E0,0E0,0E0,0E0,0E0,0E0,0E0,0E0,0E0,0E0,0E0,0E0,0E0,0E0,0E0],"parents":[2147483647,0,0,1,1,2,2,3,3,4,4,5,5,6,6,7,7,8,8,9,9,10,10,11,11,12,12,13,13,14,14],"right_children":[2,4,6,8,10,12,14,16,18,20,22,24,26,28,30,-1,-1,-1,-1,-1,-1,-1,-1,-1,-1,-1,-1,-1,-1,-1,-1],"split_conditions":[1.6666667E-1,7.691667E2,1E0,1.6E4,2.0749883E5,4.1173335E3,2E0,-1E0,3.52E2,2.9E5,3.704861E-2,3.1E5,3.944576E-2,1.22570164E5,4E4,2.047603E-2,6.971967E-2,-1.9626555E-4,1.216934E-2,-6.0833707E-3,-1.8423181E-2,2.3277787E-2,-8.048233E-4,2.4511186E-2,-4.0008012E-2,1.241682E-2,3.5970255E-3,1.3647646E-2,3.20031E-2,1.71107E-2,3.1591326E-2],"split_indices":[2,1,2,0,1,1,2,2,1,0,5,0,5,1,0,0,0,0,0,0,0,0,0,0,0,0,0,0,0,0,0],"split_type":[0,0,0,0,0,0,0,0,0,0,0,0,0,0,0,0,0,0,0,0,0,0,0,0,0,0,0,0,0,0,0],"sum_hessian":[7.9861074E3,5.5480347E3,2.4380728E3,1.00809344E3,4.539941E3,1.3792852E3,1.0587877E3,1.5931849E1,9.921616E2,4.3582686E3,1.8167255E2,1.04416794E2,1.2748683E3,7.027281E2,3.5605957E2,5.853069E0,1.0078779E1,6.2628796E2,3.6587363E2,3.6342297E3,7.2403894E2,7.812676E1,1.0354579E2,9.993558E1,4.4812136E0,3.161275E2,9.5874084E2,6.22277E2,8.045114E1,1.0228452E2,2.5377504E2],"tree_param":{"num_deleted":"0","num_feature":"6","num_nodes":"31","size_leaf_vector":"1"}},{"base_weights":[5.1969485E-3,-6.604754E-2,3.2577786E-1,1.262039E-1,-8.933316E-2,2.6801974E-1,5.0403374E-1,6.3607134E-2,4.1743007E-1,-1.2277334E-1,9.106356E-2,7.649785E-1,2.5622258E-1,6.177445E-1,3.3006653E-1,-4.968928E-3,1.6618874E-2,2.6141742E-2,-1.2750732E-2,-1.1398544E-2,-1.635759E-3,5.7765874E-3,-2.090368E-2,-3.1615023E-2,4.4457138E-2,-5.962644E-3,1.3380813E-2,3.347619E-2,-2.4230024E-2,1.7583022E-2,-6.359708E-2],"categories":[],"categories_nodes":[],"categories_segments":[],"categories_sizes":[],"default_left":[0,0,0,0,0,0,0,0,0,0,0,0,0,0,0,0,0,0,0,0,0,0,0,0,0,0,0,0,0,0,0],"id":44,"left_children":[1,3,5,7,9,11,13,15,17,19,21,23,25,27,29,-1,-1,-1,-1,-1,-1,-1,-1,-1,-1,-1,-1,-1,-1,-1,-1],"loss_changes":[1.8117674E2,2.906621E1,1.4714966E1,1.2763353E1,3.4937386E1,6.203209E0,6.756218E0,2.5381199E1,8.918259E0,4.6269707E1,1.133461E1,4.86596E0,4.599617E0,1.2403519E1,5.3326054E0,0E0,0E0,0E0,0E0,0E0,0E0,0E0,0E0,0E0,0E0,0E0,0E0,0E0,0E0,0E0,0E0],"parents":[2147483647,0,0,1,1,2,2,3,3,4,4,5,5,6,6,7,7,8,8,9,9,10,10,11,11,12,12,13,13,14,14],"right_children":[2,4,6,8,10,12,14,16,18,20,22,24,26,28,30,-1,-1,-1,-1,-1,-1,-1,-1,-1,-1,-1,-1,-1,-1,-1,-1],"split_conditions":[6.666667E-1,3.137402E-2,2E0,3.2E5,1.6666667E-1,1.2613334E-2,8.11175E-1,-6.666667E-1,0E0,1.9894281E-1,3.2E5,1.6666667E-3,5.3219166E-2,1.251334E-1,3.6E5,-4.968928E-3,1.6618874E-2,2.6141742E-2,-1.2750732E-2,-1.1398544E-2,-1.635759E-3,5.7765874E-3,-2.090368E-2,-3.1615023E-2,4.4457138E-2,-5.962644E-3,1.3380813E-2,3.347619E-2,-2.4230024E-2,1.7583022E-2,-6.359708E-2],"split_indices":[2,5,2,0,2,3,3,2,2,5,0,3,3,5,0,0,0,0,0,0,0,0,0,0,0,0,0,0,0,0,0],"split_type":[0,0,0,0,0,0,0,0,0,0,0,0,0,0,0,0,0,0,0,0,0,0,0,0,0,0,0,0,0,0,0],"sum_hessian":[7.93062E3,6.4892676E3,1.4413523E3,7.005925E2,5.788675E3,1.0905107E3,3.5084164E2,5.776497E2,1.2294284E2,4.8837017E3,9.0497345E2,2.3806625E1,1.0667041E3,2.1062149E2,1.4022014E2,3.5998224E2,2.1766748E2,1.0647545E2,1.646739E1,2.2518127E3,2.6318887E3,8.64214E2,4.0759422E1,1.6088647E0,2.219776E1,3.1136747E1,1.0355673E3,2.0154707E2,9.074423E0,1.3912532E2,1.09482E0],"tree_param":{"num_deleted":"0","num_feature":"6","num_nodes":"31","size_leaf_vector":"1"}},{"base_weights":[3.8038297E-3,-9.551717E-2,2.4019898E-1,5.443964E-2,-1.3301142E-1,1.613797E-1,4.093411E-1,-5.428598E-2,2.022625E-1,-9.8259576E-2,-2.5563568E-1,8.935844E-1,1.5537097E-1,5.3489506E-1,2.9411122E-1,4.53711E-3,-1.3500983E-2,3.5008885E-2,7.342742E-3,-2.9201788E-4,-7.0930044E-3,-1.4957982E-2,2.0301288E-2,1.11363735E-2,5.9360024E-2,8.086752E-3,-2.202086E-2,2.3498822E-2,3.4362953E-2,1.5747398E-2,-2.5435487E-2],"categories":[],"categories_nodes":[],"categories_segments":[],"categories_sizes":[],"default_left":[0,0,0,0,0,0,0,0,0,0,0,0,0,0,0,0,0,0,0,0,0,0,0,0,0,0,0,0,0,0,0],"id":45,"left_children":[1,3,5,7,9,11,13,15,17,19,21,23,25,27,29,-1,-1,-1,-1,-1,-1,-1,-1,-1,-1,-1,-1,-1,-1,-1,-1],"loss_changes":[1.8613803E2,3.1394604E1,3.12025E1,1.796865E1,1.9006882E1,6.907341E0,1.0619438E1,2.0191935E1,1.2966654E1,1.40281105E1,2.8504501E1,2.2618475E0,6.098873E0,3.1909256E0,6.6948395E0,0E0,0E0,0E0,0E0,0E0,0E0,0E0,0E0,0E0,0E0,0E0,0E0,0E0,0E0,0E0,0E0],"parents":[2147483647,0,0,1,1,2,2,3,3,4,4,5,5,6,6,7,7,8,8,9,9,10,10,11,11,12,12,13,13,14,14],"right_children":[2,4,6,8,10,12,14,16,18,20,22,24,26,28,30,-1,-1,-1,-1,-1,-1,-1,-1,-1,-1,-1,-1,-1,-1,-1,-1],"split_conditions":[3.3333334E-1,3.619E3,1.3333334E0,-1E0,2.7E5,3.3333334E-3,6.6030717E-1,5.977778E-4,6.15E2,1.0293667E-1,8.3233887E-1,2.1E5,1.26337E5,5.221954E-1,5.98E4,4.53711E-3,-1.3500983E-2,3.5008885E-2,7.342742E-3,-2.9201788E-4,-7.0930044E-3,-1.4957982E-2,2.0301288E-2,1.11363735E-2,5.9360024E-2,8.086752E-3,-2.202086E-2,2.3498822E-2,3.4362953E-2,1.5747398E-2,-2.5435487E-2],"split_indices":[2,4,2,2,0,3,3,3,4,3,3,0,4,3,4,0,0,0,0,0,0,0,0,0,0,0,0,0,0,0,0],"split_type":[0,0,0,0,0,0,0,0,0,0,0,0,0,0,0,0,0,0,0,0,0,0,0,0,0,0,0,0,0,0,0],"sum_hessian":[7.925874E3,5.5814385E3,2.3444355E3,1.1163174E3,4.465121E3,1.6005446E3,7.438909E2,6.435851E2,4.7273236E2,3.4805354E3,9.845858E2,1.1825371E1,1.5887191E3,3.5425467E2,3.8963626E2,3.852069E2,2.5837814E2,4.6172375E1,4.2655997E2,1.1160333E3,2.364502E3,9.243313E2,6.0254475E1,4.13538E0,7.6899905E0,1.572649E3,1.6070154E1,2.5127641E2,1.0297824E2,3.8037164E2,9.264614E0],"tree_param":{"num_deleted":"0","num_feature":"6","num_nodes":"31","size_leaf_vector":"1"}},{"base_weights":[-1.4999948E-3,-9.9155836E-2,2.2109376E-1,-1.5808808E-3,-1.7747124E-1,1.4555226E-1,3.9273262E-1,-2.0414793E-1,4.195757E-2,3.135503E-2,-2.145302E-1,1.3774236E-1,1.0240061E0,3.9941713E-1,-1.315033E0,2.535998E-3,-1.5909474E-2,8.9729965E-6,8.04974E-3,-6.6341134E-3,1.12127345E-2,-6.5918067E-3,-1.4457347E-2,6.4242086E-3,